. 0.00827384 -0.00050013 0.0150481 -0.0231145 -0.0722498 -0.018543 0.0343196 -0.0862203 -0.0405432 0.159329 0.0597959 0.0188826 0.014771 -0.050079 0.0168052 -0.066991 -0.111276 -0.0044857 0.110512 0.0194592 0.0182558 0.0870824 -0.039474 0.0400561 -0.0726134 -0.0114828 -0.0611546 -0.06943 -0.000333231 0.0126813 -0.0720163 0.132051 -0.07261 0.129427 -0.0195928 -0.0412076 -0.00784507 -0.090105 0.106748 -0.112803 0.033229 -0.0098791 -0.0378827 0.00103832 -0.0278456 -0.0347692 0.0242546 0.0409005 0.0489796 -0.00438169 0.0159827 -0.0964912 -0.0630356 -0.0349878 -0.0596256 0.0603977 0.0219876 0.0723045 -0.0558412 0.098819 -0.00797697 -0.211252 0.115735 -0.0880797 -0.0318261 -0.0324366 -0.00189921 -0.0478936 -0.0428251 -0.0304829 -0.108579 0.00971366 -0.0727816 -0.100699 0.0117957 -0.0102191 0.0579024 0.0588736 -0.00261129 -0.0335452 -0.0671264 0.0327632 0.0225603 0.0445368 0.0296446 -0.0441246 -0.0522896 0.0294153 -0.00542647 -0.0162814 -0.0364373 -0.0501904 0.00622527 -0.0382281 0.0601508 -0.0146383 0.0413372 -0.0308877 0.0488086 -0.0990462 -0.0440563 0.027374 -0.0822909 -0.0347555 -0.0164037 0.0527357 -0.066105 -0.0448377 0.099099 0.0550634 0.0135487 0.0367792 -0.0319191 -0.107718 -0.0253715 0.0643802 0.0991451 0.0165746 0.026802 0.0452486 0.113313 0.0400121 -0.0898233 0.0804544 0.0331908 -0.0474117 0.0112948 0.0184175 -0.0506956 0.00663054 0.000977132 0.0615729 0.0117985 0.0586171 0.00784121 0.0360931 0.048916 -0.0532711 -0.00433746 0.123113 0.0378749 0.0922524 0.0147245 0.00180611 0.0547289 0.0480187 0.0307817 0.0210503 -0.0438108 -0.0557475 0.0203505 -0.101489 0.0327254 -0.0487314 -0.00981727 -0.0893277 0.0332623 -0.0191897 0.0540404 0.0353392 -0.0436668 0.0939225 -0.056825 0.0391804 0.0529944 0.0467676 0.00303009 -0.0156645 0.00143819 -0.00913548 -0.072748 -0.0242095 -0.141965 -0.0608851 0.0348094 0.015954 -0.00350944 0.0387861 0.0222555 -0.0547736 -0.0317895 -0.102323 -0.0425701 -0.0107259 0.0340229 0.053748 -0.0398327 -0.118321 0.0542145 -0.0339913 -0.000206203 -0.0426029 0.0774234 -0.00431273 -0.107012 -0.0344463 0.00489351 -0.024913 -0.120976 -0.0373845 0.0793215 0.0142183 -0.0762946 0.024232 0.0683722 -0.0760929 -0.143701 0.0763792 0.11953 0.0427369 0.0761976 -0.00974151 -0.0437755 -0.0600634 -0.0308264 -0.00141162 -0.0126514 -0.0471209 0.00691677 0.0448013 0.0139295 0.00682792 0.0389052 -0.0465507 -0.0214966 0.0195439 -0.0351313 -0.0344542 0.0622892 0.0557582 0.0367269 -0.00202969 -0.0915607 -0.0114082 0.0284855 0.0270563 0.0312694 -0.0627514 -0.0796298 0.0206535 0.00209827 0.0609326 0.0615657 0.0225456 0.143 0.0835985 0.0691926 -0.0563476 -0.0238742 0.0134545 0.0825845 0.0420093 -0.0290511 -0.0278622 -0.0829929 0.0143454 -0.00759325 -0.0220177 0.0356431 -0.0452682 -0.0425783 0.0279522 0.0594431 0.0265769 -0.00990254 0.0345331 0.0064534 -0.00577757 0.0576197 -0.0479136 -0.0380786 0.00853138 0.0152607 -0.0184199 -0.0653017 -0.103298 0.0195284 0.0431562 -0.0175853 -0.102835 0.0865433 -0.00859505 -0.00847544 -0.047888 -0.000125441 0.00424703 0.0817641 0.134718 0.0362896 -0.0165455 0.0458477 -0.150263 0.0570279 0.00809552 -0.027119 -0.098323 -0.0170509 0.0163814 -0.0691996 -0.0160521
de -0.0224498 -0.0346501 -0.00797241 0.000184351 0.00762832 -0.00526709 -0.0456787 -0.0928997 -0.0110775 0.101543 0.0400822 -0.0225316 -0.00777956 -0.0242806 0.00309448 -0.0157537 -0.0595415 -0.032336 0.0908666 0.0896042 -0.0652701 0.0783448 -0.0661632 0.00781267 -0.0774569 -0.0234571 -0.00408151 -0.0047707 -0.0037913 0.0448241 0.00186112 0.0350792 -0.123206 0.122039 -0.0119058 -0.0411039 -0.0167595 -0.139855 0.0557641 0.0292245 0.0479467 -0.014134 -0.0817867 0.0387882 -0.0330022 -0.0343766 0.0171839 0.0407893 -0.00616821 -0.0220025 0.0454987 -0.00375425 0.0525216 -0.0152191 -0.0168317 0.0152967 0.0390438 0.0427873 -0.034839 0.00408244 -0.0212333 -0.176357 0.154553 -0.0120366 -0.038649 -0.098325 -0.121109 -0.0681217 -0.100202 0.00853057 -0.13198 0.018651 -0.0114974 -0.03015 0.070701 0.0291238 0.0970596 0.0667696 0.0330639 -0.0427338 -0.0507973 0.0803866 -0.0582392 0.0226157 0.0744703 -0.0569866 -0.0616866 -0.00467903 -0.00052299 -0.0590336 0.00475298 0.032114 0.0688244 -0.0537713 0.0694338 -0.00124151 0.0402981 -0.018462 0.113855 -0.0343781 -0.0795899 -0.0366 0.0636313 -0.0901553 -0.0439255 0.0241174 -0.0124884 0.0353992 0.00874622 -0.00718142 0.0134374 0.0241164 -0.0306649 -0.0701864 0.032582 0.0501859 0.0324244 0.0740376 0.0636734 0.00123043 0.11427 0.0592718 -0.0102476 0.0275045 0.0783506 0.0614061 -0.0364951 0.0920337 0.0403395 0.00793423 -0.0274039 0.0257084 0.0222218 0.0982319 -0.0115034 0.117841 -0.0432173 -0.035359 -0.00878309 0.108916 0.0555538 0.0640259 0.0347702 -0.0523591 0.0154368 0.0732581 -0.00324474 0.0685456 -0.0377655 0.0529335 0.0732013 -0.0511055 -0.0594372 -0.0128511 -0.0417068 -0.0151265 0.0250196 -0.0382385 0.0178248 -0.0626056 -0.0286754 0.123859 -0.063028 0.0431206 0.0877411 -0.00662489 -0.0355201 -0.0106127 0.0294791 -0.0461398 -0.0895865 -0.0236602 -0.0774097 -0.11155 -0.0188339 -0.00485989 0.0524022 -0.00156113 0.0706318 -0.0341247 -0.0506944 -0.0364731 -0.0620947 0.0498429 -0.0102414 0.061053 -0.000485818 -0.0799414 0.00739403 0.0166967 -0.0428856 -0.0294574 0.116845 0.0726581 -0.0183222 0.00602432 0.0140721 0.00106721 -0.0725363 -0.0278195 0.0876963 -0.0534353 -0.0555537 0.0684409 0.02409 -0.0508047 -0.110896 0.0748321 0.0344981 0.0109985 0.11095 0.0554918 0.00289934 -0.0213942 -0.0131135 -0.0716284 -0.00119002 -0.0386429 -0.0129882 -0.0179418 0.016953 -0.00889007 0.0202353 0.0410608 -0.0523229 -0.0150782 -0.0224725 0.0426191 0.0502407 -0.0776703 0.0581334 0.027438 -0.0548434 0.0303301 0.0428944 0.0809135 0.0343744 -0.0999338 -0.00758567 -0.0250072 -0.10312 -0.079755 0.038784 0.0399698 0.060869 0.137095 0.106521 -0.0655034 0.075245 0.00733541 0.0824791 0.0696695 0.0791013 -0.0115421 -0.0820658 0.0452383 -0.0371471 -0.042574 0.0258799 -0.0434575 0.00823893 0.0444079 -0.0405077 -0.037115 -0.0131049 -0.0196679 0.0627687 0.107607 0.0463443 -0.0393745 -0.100816 -0.0344627 0.0360351 -0.0238887 -0.0906863 0.0302012 0.0295924 0.0332626 0.0428983 -0.0243852 0.0470752 -0.0625892 0.0132893 0.00931241 0.0407183 -0.0206956 0.0257106 0.119496 0.00638955 0.0529056 0.0280667 -0.219076 -0.00505525 0.088573 -0.0415105 -0.0568111 -0.0350547 0.0844443 -0.0757192 -0.054884
</s> -0.000904163 0.0182837 -0.0147888 0.110506 -0.0516558 -0.0457358 -0.014736 -0.0255937 0.0250626 -0.0180235 0.0409291 -0.0114453 -0.0397439 -0.0256001 0.0120303 -0.0723408 0.0378004 0.161023 0.0894276 0.0869358 -0.00415235 0.0146945 -0.0616653 -0.127275 -0.129965 -0.0469886 -0.0106073 -0.0138727 -0.00769069 0.0184639 -0.0392968 0.1944 -0.0190639 0.0246083 -0.0950053 -0.0435334 0.0405748 0.0147765 -0.0157232 0.0355761 -0.0104099 -0.0262283 -0.0450961 -0.0576275 0.00941189 0.0981701 0.00470582 0.0488258 0.120672 -0.0236333 0.0331867 -0.107451 -0.0335074 -0.175078 -0.0984923 -0.0205975 0.0181055 0.0868127 -0.011565 -0.0431753 0.0872008 -0.0472405 -0.0326704 -0.0541209 0.00615771 -0.0374154 0.0704797 0.00615861 0.0259716 -0.0218219 -0.0524065 0.0126594 0.0439156 0.067095 -0.0577792 -0.0544412 -0.0145003 0.02226 0.0156632 0.0652263 0.0191599 0.0771943 0.0358022 -0.00428153 -0.0255876 -0.0101301 0.0250604 0.0371783 0.0394789 -0.0505749 0.053748 -0.0204447 0.0497612 -0.0433515 0.024496 0.000641868 0.0639126 0.0976842 -0.00678117 -0.039989 -0.00473588 -0.00403804 0.023159 0.0208168 0.0780539 0.000558348 0.0491084 -0.0119859 0.0131413 -0.019644 0.0389948 0.00295904 -0.0081321 -0.0756353 0.0828196 0.00943426 0.0116388 0.00197048 0.0976762 -0.0513771 0.077883 0.0466171 -0.127877 0.0446597 0.0688427 -0.0078261 -0.0142506 -0.0361377 -0.00255672 0.0576722 -0.0580493 -0.00731431 0.0124369 -0.0505884 0.00956154 0.00901472 0.0382024 -0.0280363 0.00206302 0.16317 -0.0433556 0.0448425 0.0924599 0.0763579 -0.0442093 0.0350988 0.0117178 -0.00889796 0.0432629 0.0541431 0.00342515 0.0109887 -0.0796569 -0.0462167 0.0768357 -0.0965167 -0.0390013 0.0370673 -0.0827858 -0.0609927 0.0809994 0.0494324 -0.00914345 -0.0414581 0.0678481 -0.0310668 0.00710451 -0.0285193 0.00702738 0.0870089 0.00280567 -0.0341282 -0.0913622 0.0837518 0.00860102 0.0451065 0.0190942 -0.053348 0.0100651 -0.0836621 -0.0486861 -0.0577498 -0.00422587 -0.0222236 0.0185457 0.100059 -0.0141534 -0.0192694 0.0353083 0.0317795 -0.0384447 -0.171177 0.0995169 -0.0126117 -0.0893937 -0.0508539 0.0620012 -0.0060084 -0.00106127 -0.15529 0.0368994 0.0440514 0.0414972 0.0102529 -0.0536585 -0.0686405 0.0571667 -0.0902677 0.140337 -0.0230231 0.0543213 0.00817354 -0.0268459 -0.00981936 -0.0890128 -0.0436305 -0.068828 -0.076514 0.0153877 0.0423526 0.061471 0.119393 0.00315534 0.0435823 0.053565 -0.044496 0.0369536 -0.0954804 0.0101735 -0.137503 0.0307024 -0.0053963 -0.0206614 -0.0249138 -0.00701959 -0.000907051 0.0708357 -0.00116607 0.00288712 -0.0274834 -0.0447882 -0.00179443 0.0725763 -0.00929202 -0.0245006 0.00259275 0.0401117 0.0589679 -0.0325029 -0.00946612 0.0180192 -0.00517077 -0.125077 -0.0114214 -0.0771954 -0.0968776 0.0471396 -0.0455272 -0.0755747 0.0244034 0.0154915 -0.00230508 0.0145577 -0.0208147 -0.0150204 -0.0180656 -0.0248789 0.00678311 -0.0525532 0.0207667 -0.105026 0.0626187 0.130814 0.0109288 -0.114145 -0.0593533 -0.0402768 0.120595 0.103875 -0.0791112 -0.0840248 -0.0312817 -0.0122129 -0.0747564 -0.00142462 -0.0331246 0.0383457 -0.0314655 -0.021536 0.0144741 -0.0187224 -0.0313918 0.00713606 0.115017 0.0563351 -0.0689399 -0.0907211 0.0352376 0.0123581 -0.0666856
, -0.0542198 0.0138568 -0.0272682 -0.00732873 -0.040767 0.0113115 0.0511981 -0.00936656 -0.014302 0.0974727 0.0805729 0.00763414 0.0876322 -0.0381782 0.0290572 -0.0600373 -0.043037 0.0503576 0.0284881 -0.0199701 0.0144737 0.0885246 -0.0899716 0.0299462 -0.0760306 0.0545256 0.051862 -0.100374 -0.0371397 -0.002734 -0.0754985 0.133649 -0.0455297 0.0499598 0.0317194 -0.132413 -0.0713589 -0.160752 0.108614 -0.0908713 0.0296412 0.105606 -0.0881815 0.019391 -0.0335755 0.0119151 -0.066476 -0.000817137 0.0166116 0.0210187 0.01546 -0.0229387 -0.0689407 0.00615868 0.00193795 0.0166672 -0.0264051 -0.0141265 -0.0534622 0.0545117 -0.00872148 -0.174125 0.0602068 0.031374 -0.0273668 -0.0452257 -0.0115562 0.0350257 -0.0359664 -0.0198689 -0.0122015 -0.0717084 0.0412949 -0.0782567 0.0174624 -0.0369613 0.0780956 -0.0241991 0.0713597 0.0479244 -0.0375104 0.0802008 -0.0975763 -0.0146031 0.0660295 0.0625474 -0.0453577 0.00821281 0.114236 -0.0609204 -0.0113886 -0.0226174 0.033487 -0.0484286 0.069551 -0.00268917 -0.0197312 -0.0310832 0.0850471 -0.043392 0.0021349 0.00235077 -0.0667831 -0.0174233 0.0137379 0.0679395 -0.129327 -0.0258754 -0.0272603 -0.0605531 0.0350605 0.0552725 -0.0716257 0.0204175 0.00426727 0.0425108 0.056306 0.0270262 -0.0116766 0.00125965 0.0721261 -0.0199539 0.000453643 0.0721414 0.0458826 -0.00755802 0.00248392 0.0610885 0.0955052 0.0874386 0.0107396 0.00888369 -0.0455379 0.0405185 0.0468743 0.0150946 0.00916114 0.0767977 0.0270631 0.0800478 -0.0670656 0.0614224 0.0302443 0.0249193 0.0268368 0.0785426 -0.0466852 0.0755507 -0.0343001 -0.108633 -0.030841 -0.121238 0.0542654 -0.0211569 0.0327685 -0.0323473 0.0266469 -0.0572232 0.120341 0.068865 -0.0268834 0.120763 -0.100502 0.0681133 0.0769616 -0.0606775 -0.0857464 -0.0082532 0.0589184 0.0325067 0.0081511 0.0176838 -0.0994598 0.00382715 0.0180963 0.0475152 0.0215726 0.0982798 0.0398867 0.022106 0.00834102 -0.0808142 -0.0222513 0.0174143 0.00305057 0.163021 -0.036234 -0.0212678 0.0343998 -0.0329744 -0.00663912 -0.0962332 0.0824578 -0.0192971 -0.0640377 -0.00243381 0.0872012 0.0670503 -0.0496006 0.0393201 0.0596078 -0.0456643 -0.0836565 0.0159744 -0.0222006 -0.0917201 -0.0438329 0.0148048 0.0780698 0.00241351 0.108431 0.0352246 0.027891 -0.016856 -0.0740426 -0.0111119 -0.0247936 -0.0873487 -0.057024 0.0078772 0.00913814 0.0511195 -0.106579 -0.0614477 -0.0347939 -0.0397632 0.0148761 -0.0543261 0.0586203 0.0561114 0.0466346 -0.0153986 -0.0700695 -0.0215558 -0.0496385 -0.0297058 0.0331966 -0.045501 -0.124568 -0.0244448 0.00763338 0.107639 0.0721165 0.00171603 0.0528839 0.0832774 0.0138067 -0.0818241 -0.00773114 0.0357743 0.0440073 -0.053739 -0.0678619 0.0345508 -0.0337771 -0.0634813 -0.0278127 -0.00255837 0.0548569 -0.0480715 -0.000281253 0.0402733 0.0394083 -0.0124875 0.0229405 0.0504956 0.0207731 0.0773037 0.10511 -0.0538614 -0.0512139 0.0495424 0.0426352 -0.0794771 -0.079061 -0.0197407 0.127154 0.0978551 -0.0145432 0.00022428 0.0257065 0.049445 -0.013846 0.114723 0.0465758 -0.00265392 0.0242712 0.0771963 0.0361698 0.0174107 0.0158344 -0.0890912 0.0989819 0.0031239 -0.035808 -0.0600427 -0.0257741 0.0216077 -0.0728439 0.0688249
van -0.00279621 -0.113937 -0.00527623 -0.012025 0.0639854 0.0120951 -0.0238706 -0.0872821 -0.0501835 0.110998 0.142802 0.0137767 0.0323978 -0.00594598 -0.0721698 0.0614622 -0.0769353 0.0182437 0.069511 0.0876527 -0.0627014 0.0264862 -0.0384223 -0.0245279 -0.0952698 -0.0831636 0.00952067 0.044196 0.0156368 0.0343588 -0.0446776 0.0893837 -0.0956799 0.0908352 -0.00128815 -0.061845 -0.0283897 -0.116082 0.0549891 -0.0421416 0.042889 -0.0131868 -0.00196842 0.0205229 0.0224056 -0.0552792 -0.000561997 -0.0232498 0.0100204 0.0161378 -0.00263063 0.0456943 -0.0106794 -0.0496381 -0.0577208 -0.0406927 0.0452002 0.0406314 -0.031607 0.0492887 -0.0675073 -0.157138 0.0929221 -0.0409263 -0.0261404 -0.0467579 -0.126332 -0.0207021 -0.0673733 -0.105496 -0.0615894 0.00340439 -0.0178928 -0.0443837 0.0484239 0.0674823 0.1373 0.113435 0.0456977 0.03666 -0.00897196 0.111508 -0.110975 -0.0365758 0.0407308 -0.0832053 -0.0488431 -0.0100084 -0.0371203 -0.0748932 0.0291325 0.0585208 -0.0479075 -0.0973748 0.00417369 0.028495 0.0557056 -0.0103518 0.157023 -0.0130202 -0.00693111 -0.00457293 0.0106379 -0.0657816 -0.118084 0.00704924 -0.0323297 0.0130217 0.0664359 0.0325453 0.0640074 0.0440071 -0.0307815 -0.0552503 -0.0245838 0.019565 0.0405519 0.0929964 0.0920489 0.0222945 0.043159 0.0620538 0.0145462 0.0765311 0.00768502 -0.0106932 0.0231553 0.0594458 0.0381931 0.00223917 -0.0322193 0.0642011 0.0611022 0.00915775 0.0670777 0.0744208 -0.0421893 -0.0413633 0.0513691 0.0861051 0.0143183 0.0376195 -0.011796 0.0296099 0.0516041 0.0977647 0.00380981 0.000128932 -0.0420573 0.0659459 0.0611299 -0.0490176 -0.0564135 -0.0352602 -0.0400099 -0.0265008 -0.00471837 0.0150488 0.0744654 0.0347388 -0.0600588 0.0552898 -0.0124673 0.00017228 0.119072 0.0141302 -0.028618 0.00580683 0.0672252 -0.0595678 -0.16886 -0.0128415 -0.108618 0.0123107 -0.00357897 -0.0408879 0.0596988 0.0781961 0.045083 -0.027579 -0.00226082 -0.0448282 -0.0393523 0.0258291 -0.0181444 0.0278566 0.027619 -0.0965579 -0.0161946 -0.0171525 0.0354776 -0.0880053 0.0951759 0.0189545 -0.00245796 0.0194448 -0.0375382 0.00100678 -0.0704776 -0.00289928 0.00457412 -0.0670322 -0.0833859 0.0248244 -7.52372e-05 -0.0611918 -0.111523 0.0833263 0.0197044 -0.00536903 0.110955 0.0874996 0.0235514 -0.00838199 0.00774374 -0.0460395 0.0471621 -0.0708394 -0.0481958 -0.039619 -0.00841028 -0.0182258 -0.0044245 0.0041934 -0.0680872 -0.0408824 -0.0718445 -0.0322363 -0.00389889 -0.0104647 0.039436 0.0400809 -0.0777563 -0.00847141 0.0272089 0.0745844 0.00552795 -0.0223499 0.0255387 -0.0498187 -0.049491 -0.0487262 0.0614264 0.00670972 0.129177 0.0861516 0.0221535 -0.0978123 0.0765084 -0.037735 0.0431677 0.0270393 0.0596495 0.00604963 -0.0536627 0.02677 0.0110117 -0.0353869 0.0485609 0.000482668 -0.0693544 0.00903086 0.0206414 0.0163538 -0.0626154 -0.104729 0.0170589 0.0661265 0.0433659 -0.0302241 -0.0597333 -0.0101946 -0.0194941 0.0384107 -0.0966993 -0.0482035 0.00332115 0.0121064 0.0577651 0.0389515 0.027718 -0.0642071 0.0653229 0.0169818 0.0661909 0.0217523 -0.00721889 0.108874 0.0363928 0.0543117 0.0588802 -0.216382 -0.0140079 0.0810719 -0.0384463 -0.0662442 -0.00576102 0.117277 -0.0319367 -0.0443515
- -0.0775612 -0.0448923 0.0124249 -0.0277387 -0.0351546 -0.000180887 0.0281688 -0.039358 -0.0620881 0.0112315 0.0188763 -0.013864 0.0131106 0.00668285 -0.00333193 0.0317093 -0.0294697 0.0679386 -0.0179408 0.042738 0.0194287 -0.0618905 -0.0944939 -0.0468685 -0.0898758 0.0113548 0.0214192 -0.127866 -0.0613916 -0.0230959 -0.0719773 0.131983 -0.0699891 -0.0480181 -0.0170473 -0.111703 -0.00135685 -0.0754993 0.0376596 -0.0969963 0.0448199 -0.0208646 -0.011771 0.0675027 0.0039674 -0.0365317 -0.0841233 0.0410831 0.0982967 0.081478 0.00571637 -0.0558169 -0.0464959 -0.0770423 7.18201e-06 -0.0574714 -0.0332854 0.0342445 0.00611875 0.0224162 0.0404888 -0.112374 0.0830175 -0.077079 -0.00552783 0.0144127 0.0659893 -0.0478796 -0.0301574 0.0547184 0.0269668 -0.00522874 0.00611013 -0.0713314 0.0348779 0.0226344 0.122145 0.0589911 -0.0240748 0.0966599 -0.00605466 -0.0308935 -0.0301594 -0.0538169 0.0885053 -0.115027 -0.00664378 -0.00171762 0.0470354 -0.0723829 -0.0347823 0.0328918 -0.0894523 -0.0173714 -0.0447327 -0.0308939 0.0411063 0.0705124 -0.0246715 -0.0510031 0.0159216 0.00229851 0.0177007 -0.000996371 0.0887002 -0.0133104 -0.110168 -0.0591942 0.0195196 0.0421883 0.0226818 0.0537446 -0.00799477 -0.0796585 -0.0108667 -0.0439158 0.0154814 -0.0233031 -0.0713275 0.0202956 0.134462 0.0491414 0.0721438 0.102535 0.0256225 -0.0183627 0.0528038 0.00957505 -0.0657678 -0.0107666 -0.0241386 0.0468718 0.0590927 0.000668 -0.0265027 0.032527 0.0480977 -0.00634198 0.0616395 0.154017 -4.56406e-05 0.0568767 0.100785 0.113116 0.0305775 0.119111 0.0195451 0.0150986 -0.0599515 -0.0590042 -0.00423622 -0.062698 -0.0289125 -0.0341351 -0.0197166 0.0227879 -0.0697311 -0.0629548 0.0522196 0.0517381 -0.0149453 0.0206524 0.0421764 0.0375813 0.0597608 -0.0109064 -0.0150167 0.0310223 0.0559601 0.00540895 -0.103137 0.00498494 -0.0550177 0.0685193 -0.0529635 0.0739752 0.0532352 0.0174959 0.0583144 -0.0271745 0.05619 0.004111 -0.0911147 0.0317791 0.0199839 0.223755 0.0128104 -0.054369 0.0604939 0.0876871 -0.0188631 -0.0659439 0.0546831 -0.0250678 -0.0296318 -0.0122035 0.0512088 0.0470206 -0.0965677 -0.036276 -0.0298097 -0.0278359 -0.0177714 -0.0352022 0.0378943 -0.0236715 0.00346882 -0.0334185 0.113443 0.130344 0.0830621 -0.0635046 -0.0135756 -0.0499704 -0.0453076 -0.0634176 -0.0163915 0.0224504 -0.116912 0.0359715 -0.0547949 0.110721 -0.0865719 0.0147071 -0.0908257 -0.0149174 0.00371794 0.0226998 0.0121146 0.0545494 0.0953334 0.0606807 -0.0631778 -0.049107 -0.0737758 0.0561687 0.0127219 -0.0106498 0.0568474 0.0264952 -0.0796028 0.0199192 0.0610084 -0.0342574 0.0128453 0.0261517 0.0901046 0.0292971 0.0406205 -0.00901838 0.000624433 0.0386391 0.0187392 0.120251 0.00819869 -0.0135266 -0.0132132 -0.0202717 0.0986974 0.0919963 0.0243573 0.0332973 0.0677717 0.0858869 -0.100279 0.0429421 -0.112326 -0.0629715 0.0891216 -0.100688 0.0145028 0.0430419 0.0856654 -0.0647697 -0.0411166 0.0326981 0.0942401 0.0631468 0.00444426 -0.028243 -0.015621 0.0671574 -0.0406609 0.0506129 -0.0178259 0.0405787 0.0472181 -0.0378539 -0.0286499 0.0263045 0.0685809 -0.0174128 0.150471 0.0600725 -0.020786 -0.0365111 0.0349702 -0.0355778 0.0653511 -0.0157204
in 0.0127228 0.00758464 0.036163 0.0653574 -0.00920893 0.00774304 0.00774773 -0.0718165 -0.0309115 0.0917079 0.0660113 -0.0378576 0.0683671 -0.0411397 -0.0377498 -0.031388 -0.0679759 0.0165119 0.0256736 0.0443407 -0.0364551 0.101401 -0.0909301 -0.0158017 -0.0751715 -0.0280073 -0.0183446 -0.0654839 0.00242363 0.060034 -0.0688833 0.13899 -0.120876 0.103384 0.0469684 -0.0943321 0.00185625 -0.0310701 0.0681985 -0.0289525 0.0193389 -0.0954594 -0.117867 -0.00436442 0.00935834 0.0232371 -0.0324398 0.0480789 0.0138479 0.109747 -0.0356357 0.0305497 -0.00532386 -0.0383457 -0.061177 -0.0453201 0.0248193 0.0844525 -0.0543725 -0.0192445 0.0386681 -0.104618 0.138859 -0.0331262 -0.0407801 -0.101763 -0.0441051 -0.0262645 -0.0948531 0.0520636 -0.0475527 0.0230422 -0.0836888 -0.0465198 0.0155735 -0.0364537 0.0926911 0.0452985 0.0164245 -0.0566896 -0.00333444 0.0710393 -0.00510225 -0.00349487 0.00956296 -0.118413 -0.0221421 -0.0310606 -0.025708 -0.0644764 -0.0578794 0.00484572 0.128335 -0.0514219 0.0458131 -0.0413632 0.000210266 0.0908948 -0.0236728 0.00450655 -0.0573681 -0.0203342 -0.00476707 0.0178803 -0.0389982 0.0166348 -0.0405361 0.0142916 0.0496879 0.00840288 0.0297671 -0.03081 0.000765232 -0.103744 0.00910495 0.0482546 0.0764151 0.00881126 0.083834 0.0315412 0.0984243 0.0378437 -0.0702412 0.0615001 -0.00383236 -0.0378241 0.00772741 0.0101591 0.0508759 0.113712 -0.0685801 0.0264715 0.0332125 0.010296 -0.0527321 0.0827924 0.00308465 -0.0568841 -0.0176101 0.091988 -0.0262128 0.0760114 -0.0186353 -0.0136092 0.00556211 0.0997675 0.0224298 0.0532458 -0.0458635 0.0450392 0.0663563 -0.0425357 0.0325328 0.0134399 -0.111212 -0.00975391 0.00496983 -0.030455 -0.0132181 0.000999587 -0.0574097 0.213941 -0.123054 0.0403566 0.0509237 -0.0102313 -0.0503718 -0.0164108 0.0341133 0.00856896 -0.03763 0.0363017 -0.00447761 -0.106691 0.0113077 0.0142502 0.0282675 0.0169147 0.0567125 -0.0122156 0.00966366 -0.0272541 -0.112007 0.0782656 -0.0232886 0.0650404 -0.0302551 0.000206971 -0.0194625 -0.00791993 -0.0456044 -0.0266759 0.0607668 0.0832919 -0.0520412 0.0454383 0.012551 0.0818119 -0.0926527 -0.0397749 0.0885505 0.00486492 0.0124411 0.0766919 -0.0233175 -0.0620498 -0.130329 0.102608 0.0614178 0.0453796 0.103629 0.0735202 -0.137701 -0.0381584 -0.0111062 0.0128071 0.03795 -0.0302057 -0.0386129 -0.00104016 0.0261444 -0.0404704 0.0559991 -0.00102205 -0.0167051 -0.0279154 -0.055665 0.00651593 0.00388402 0.0746826 0.0826703 -0.0709007 -0.107843 -0.0217758 0.000479151 0.00801196 0.0107003 -0.109108 -0.0334173 0.0465381 0.0181429 0.0352903 0.00822163 0.0118265 0.0920346 0.074528 0.0797294 -0.0882699 -0.00148799 -0.0377891 0.0709698 0.0507727 0.0443055 -0.0453653 -0.0695816 0.0670892 -0.124565 -0.073281 0.0577278 0.0207378 -0.000206534 0.0512834 0.00850916 -0.0599464 -0.0216536 0.0527086 -0.0407483 0.0406216 0.000904998 -0.021867 -0.0264907 0.0120215 -0.0604749 -0.0583054 -0.0780918 -0.0604427 0.00649626 0.100224 0.0520865 -0.139205 0.0795367 0.00830605 0.00131514 0.0760228 -0.00671963 0.0178254 -0.0191051 0.0512983 0.00584362 -0.0125026 0.043467 -0.168613 0.0518064 0.0679181 0.00278437 -0.0470795 0.0124443 0.0188468 -0.0441832 0.0250614
het -0.0551598 -0.0176129 0.0819203 -0.0033809 0.0289107 -0.00619999 -0.046803 -0.0890634 -0.0728735 0.0517882 0.0137565 -0.0248952 0.0417203 -0.0395374 -0.0689786 0.0543005 -0.0365573 -0.0105475 0.0857718 0.0933086 0.0163649 0.020552 -0.0617533 -0.0969428 -0.00360692 -0.0758813 -0.0059408 -0.0438346 0.0227271 0.028583 -0.0995168 0.13213 -0.0629684 0.0557611 0.012359 -0.0334913 -0.0699617 -0.0527828 0.0568947 -0.057376 -0.0299201 -0.0627815 -0.0686728 -0.0421718 0.0824507 0.102275 -0.0440634 0.00924797 0.0303977 0.0445693 -0.0194849 0.0103715 -0.0934867 -0.077431 -0.0710923 0.0521949 0.0541374 0.0661686 -0.03367 0.0665728 0.000949769 -0.063853 0.0861839 -0.0508196 -0.0235772 -0.0605376 -0.020885 -0.01133 -0.0445375 0.0239306 -0.0736492 -0.00426828 -0.0729268 -0.102807 0.0220312 -0.0149363 0.142896 0.0602265 -0.0259018 0.010383 -0.00045972 0.000173777 -0.0122829 0.0143029 -0.0526456 -0.130585 -0.0301298 0.0345412 0.0105326 -0.0366369 0.0138341 0.0154135 -0.00117749 -0.157211 0.00523068 0.0379451 0.0367112 2.06407e-05 0.0684746 -0.0169913 -0.117874 -0.00154026 -0.061954 0.028376 -0.0565317 -0.04346 -0.0482774 0.0229156 -0.0242091 0.0603659 -0.00208567 -0.0477404 -0.00278412 -0.084328 -0.0501132 0.0323115 0.117888 0.0844693 0.0800949 -0.0350545 -0.0259263 -0.00730766 -0.0228471 0.135344 0.0368831 0.015602 0.0622537 -0.0223077 0.0380736 0.0760156 -0.0748165 -0.0208831 0.0620049 0.00733849 -0.00875015 0.0441027 0.0297661 0.023188 -0.0350519 0.0711259 0.0207154 0.0595503 0.0047508 0.0939503 0.0167718 0.0543141 -0.0070268 0.00706603 0.0240805 0.061387 0.109116 0.0146054 -0.00543413 -0.0747139 -0.0815425 0.0164275 0.0116165 0.0110818 0.143047 0.0356633 -0.101561 0.210123 -0.0686562 -0.0194344 0.0641179 0.0154645 -0.0384742 0.00983647 0.0165828 0.0457995 -0.0836911 -0.0175054 -0.00641593 -0.0551415 0.0440369 0.0137425 -0.00321821 0.0601985 -0.0605857 -0.0165249 -0.0324528 -0.0289327 -0.0104313 0.0165113 0.0119074 0.0638798 0.049778 -0.0912602 -0.015564 -0.0326027 -0.0408667 -0.0452562 0.0255352 0.0346603 -0.0391777 0.0804028 -0.0633019 0.16133 -0.0386921 -0.000761001 0.0113845 -0.0149929 -0.0467588 0.0657437 -0.0166663 -0.0739438 -0.155429 0.0693599 0.0383411 0.0213976 0.127243 0.0529904 -0.027473 0.0437752 0.0998509 0.0180173 0.0430358 -0.0289607 -0.00301107 -0.0324255 0.026941 -0.00505055 0.037679 -0.0192479 0.0446438 -0.0879726 -0.0696692 -0.0298129 -0.0076777 0.030337 0.0735558 -0.0299083 -0.0563616 -0.0309403 0.0213836 -0.00640741 0.0273646 -0.0398202 -0.0440929 0.0122989 0.0259261 0.0316311 0.0149905 0.01227 0.140927 0.103864 0.139505 0.0019348 -0.0209364 -0.014952 0.115287 0.0796374 0.0554833 -0.0340758 -0.0125802 0.0364251 -0.0772829 -0.051583 0.0242047 -0.0650699 -0.137659 -0.0143466 0.0101182 -0.0461523 -0.0185239 -0.0369771 -0.0540714 -0.00760638 0.0325261 -0.0786229 -0.140814 0.00853671 0.00863481 0.0629063 -0.0483043 -0.055027 0.01127 0.0639939 0.0978522 -0.0865679 0.0432791 0.0422399 -0.00616243 -0.0302347 0.0287622 -0.0341401 0.038661 0.0731906 0.00612722 0.0383792 -0.0183012 -0.0993554 0.0134186 0.0395506 0.0379486 -0.0721623 0.0109572 0.0834064 -0.00558203 0.0311036
een 0.00767716 0.0823637 0.0245183 -0.00626505 0.00186383 0.0341707 0.0103823 -0.0438338 -0.0911052 -0.0110361 0.0227864 0.00383554 0.00252513 -0.0127073 -0.0538255 -0.0217098 -0.0715636 0.0627909 0.0491618 0.123155 -0.00491825 0.0793332 -0.0573813 -0.033808 -0.0618128 -0.099972 -0.00430443 0.0543389 0.0587123 0.0353882 -0.0458164 0.0475237 -0.0797039 0.00256725 -0.0307475 0.0317026 -0.0756469 -0.115837 0.0526659 -0.0225655 0.0432126 -0.0102999 -0.0470687 0.00530156 -0.0513224 0.062244 0.0703136 0.071535 0.024475 -0.00125419 0.00587542 -0.00450515 0.0924921 0.0103353 0.0454258 0.0399524 0.00353744 -0.037385 0.077512 0.139425 -0.0756595 -0.0646955 0.121935 -0.0192181 -0.0110134 -0.08648 -0.091105 0.0499725 -0.00979248 0.00246081 -0.0997789 0.00328887 0.0394534 -0.0736955 0.0925953 0.0873588 0.0938764 0.0342639 0.0873801 0.013902 0.000943786 0.0390369 -0.0388946 -0.0771519 0.0669328 0.00365569 0.00883271 -0.0190011 0.0155841 -0.0856584 0.0455875 0.00168408 -0.0328303 -0.075383 0.0536043 0.0323677 0.02039 0.0233275 -0.0232182 -0.0172692 -0.119128 -0.0172264 0.0160753 0.0252527 0.0329263 0.0115376 -0.0419643 0.104411 -0.0274606 -0.0252237 0.024998 0.0575863 -0.0161832 -0.00454269 0.0456545 -0.0354937 0.0328538 0.0197124 0.0481399 0.0969329 0.0697264 0.00956029 0.0742754 0.15141 0.00764021 -0.087029 -0.059226 -0.0252458 0.0902472 0.00284522 0.0231922 0.0285099 -0.00497091 0.0326296 0.0242037 0.0244602 0.0185444 -0.0792993 0.0480126 0.0397692 -0.000829716 0.0600421 -0.0208494 0.0208758 0.0786729 0.0971968 -0.0672783 0.0179145 -0.000506616 -0.0121853 0.0579693 -0.0149679 -0.0239269 -0.0925263 -0.11472 0.00397777 0.110509 -0.0240851 0.0829914 -0.0693135 -0.0874151 0.0867409 -0.118537 -0.0199204 0.128185 -0.0206979 0.0905854 0.00333936 0.0504259 -0.0344622 -0.0759225 0.0194718 -0.0472368 -0.0741028 -0.0282529 -0.0157128 0.0587398 0.0597358 0.00674401 -0.050567 -0.0111814 0.0585711 -0.0314342 0.0604931 0.0128109 0.00368288 0.0277093 -0.0215141 -0.0392134 0.00555289 -0.0335527 -0.140986 0.113239 0.0694122 0.0195874 -0.0735202 0.0704616 0.0750206 -0.0025156 0.0105609 0.137253 -0.0144757 -0.060954 0.127769 -0.0604065 -0.0932783 -0.113946 0.035614 0.0257483 -0.0382553 0.0791229 0.0385414 -0.0114526 0.037631 0.013317 -0.0874973 -0.0113542 -0.119865 -0.0346281 -0.00829258 -0.0670395 0.0254206 -0.010435 0.0283366 0.0213048 -0.069329 -0.025323 0.0930054 -0.0182131 0.00983776 0.0462204 -0.0318476 -0.0613594 0.0665611 -0.044918 0.00912331 0.0133226 -0.0867761 -0.0541102 -0.0207295 -0.085415 -0.0768525 0.0250032 0.0284698 0.0729207 0.144299 0.056142 -0.00878958 -0.0565983 -0.00224485 0.0574047 -0.0174297 0.0101366 -0.0629172 -0.0324211 0.0958747 -0.00156542 -0.00061635 0.0866393 -0.0674041 -0.0213398 0.0207353 -0.00268611 -0.0651684 -0.0147956 -0.00892209 0.0426511 0.0916365 0.0289731 -0.0384507 -0.133147 -0.0324279 -0.0296398 0.00750404 -0.101371 -0.0208167 0.0251503 -0.0176368 0.0638467 -0.053056 0.0808055 0.00534115 0.0030379 0.018174 -0.00601845 -0.0338244 0.0484478 0.124003 0.00646266 0.0582471 0.0119212 -0.0928596 0.0299463 -0.020367 -0.0435686 -0.140882 0.0477718 0.0208073 0.0644009 -0.0181435
) -0.0545285 -0.0570686 0.0481986 -0.0867666 -0.0331313 -0.019251 0.0286292 -0.0490355 -0.0213479 0.0400552 0.00479453 -0.0204012 0.0915998 -0.0901462 0.0189531 -0.0731286 -0.0555007 0.00610056 -0.0927776 0.019463 0.0250822 0.067872 -0.0336942 0.0169107 -0.0634269 0.0487703 -0.00788203 -0.0401626 0.0255586 -0.0741128 -0.0733098 0.11526 -0.0784051 0.0637684 0.0341519 -0.0602658 -0.0642931 -0.111898 0.0289745 -0.0852969 0.0331763 0.0761074 -0.020537 0.0139699 -0.0032016 -0.0649767 -0.0256635 -0.00753829 0.0124823 0.0524242 -0.00100939 -0.115426 -0.0176389 -0.0747181 -0.0545605 -0.0392434 0.0394872 0.0104218 0.0373766 0.124496 -0.0236838 -0.0866939 0.0290626 -0.0453476 -0.0166571 0.00663497 0.0594683 -0.0509662 -0.136644 -0.0386281 -0.0373994 -0.0027587 0.0392093 -0.0192662 0.0750595 -0.0481842 0.0802879 0.0654904 0.0178334 0.148937 -0.0575638 0.0435582 -0.0126054 -0.0215815 0.105571 -0.0716965 -0.00381833 -0.00420744 0.0237423 -0.0259985 0.0844518 -0.0663637 -0.0575898 -0.0493239 0.00115068 -0.0420667 -0.0221486 -0.0381737 0.0588472 -0.0202788 -0.0110163 -0.0275052 -0.0721041 -0.0747453 0.0295067 -0.00304274 -0.0918412 -0.0279088 0.106703 -0.0913613 0.0382555 0.0226904 -0.0327538 -0.0830712 0.00882019 0.0242511 -0.00441611 0.0203017 -0.00547134 0.040495 0.186489 0.001809 -0.0923161 0.115459 0.0612969 -0.0136716 -0.0539275 0.0133112 0.039992 -0.0289007 0.0894925 0.0443668 0.0639678 0.0960354 -0.0205501 0.0256879 0.0261034 -0.085188 0.100855 0.142222 0.00502219 0.101746 0.0314493 0.002056 0.0205841 0.0985707 -0.0089342 0.015708 -0.0456458 -0.0459912 0.0643551 -0.0565489 -0.0289415 -0.0245818 -0.0340863 0.00710975 0.0401594 0.0371384 0.0812887 0.0459227 -0.0465787 0.0504171 -0.111806 0.0485326 0.0492082 -0.0149941 0.0264158 -0.00514115 -0.0333709 0.00903955 -0.0529349 0.0299751 -0.095621 -0.0334207 0.0712243 0.0226284 0.0664891 0.0531155 0.0638369 0.0282051 -0.0229224 -0.0461073 0.0112732 0.0477902 -0.00460428 0.0642473 -0.0109393 -0.0356579 0.0714571 -0.0358652 0.0480521 -0.126476 0.0222715 0.0255892 -0.110258 -0.0626636 0.0952855 0.0505428 -0.0860963 -0.053474 0.063272 -0.0744067 -0.106283 0.0118368 -0.0101084 -0.00816885 -0.114555 0.0859996 0.0861329 0.0589751 0.0753331 -0.0134437 0.0967324 -0.0853871 -0.0697974 0.0427646 0.0222506 -0.0657618 -0.134407 -0.0362757 -0.00817589 -0.000594278 -0.0132039 -0.00481631 0.059419 -0.060284 -0.0107899 0.0193997 0.064689 0.0474414 -0.0384271 0.0375741 -0.0455788 -0.0853959 0.00628485 -0.00199877 0.015752 -0.0109805 -0.00786479 0.0202808 -0.040164 0.134169 0.0490498 0.0186072 0.0776661 0.0591285 -0.000396938 -0.0254239 0.0470361 0.046251 0.0703626 -0.0529583 -0.0100064 0.0504083 -0.0407916 -0.0333944 0.0494143 0.0473205 0.0800396 -0.0584074 0.0643343 0.07331 0.0470565 0.0438148 -0.0242248 0.0601175 -0.0471132 -0.0229062 0.0295999 0.0159564 -0.0589229 0.00785058 -0.0195349 -0.0211107 -0.000618268 0.00622384 0.0507217 0.0405567 0.0519219 -0.0607129 -0.003733 0.0565202 0.0289071 0.053538 0.0258341 0.00876145 0.131625 0.0815705 0.107097 0.106666 0.0222367 -0.0671323 0.0257816 0.100764 -0.0623936 -0.0346826 0.00485799 -0.0317709 0.0374225 0.0382794
( -0.04287 -0.0531628 0.0399222 -0.0778057 -0.0130649 -0.0108511 0.0239312 -0.0459111 -0.0299717 0.0328795 -0.00648761 -0.0154742 0.0895961 -0.0902893 0.00896086 -0.0678693 -0.0689001 0.011983 -0.0884282 0.0271529 0.0114393 0.0716451 -0.0341368 0.00679919 -0.067485 0.0568943 -0.000864378 -0.0317952 0.0303604 -0.0653007 -0.0739706 0.134818 -0.0828327 0.0642297 0.0336448 -0.055102 -0.0717602 -0.103287 0.027898 -0.0852869 0.0333538 0.0566198 -0.0223221 0.0222717 0.00794161 -0.0622922 -0.0245737 -0.0113558 0.0108419 0.0527781 0.00979515 -0.0942574 -0.0155341 -0.0823474 -0.0447949 -0.0481196 0.0303353 -0.00186848 0.0343846 0.115735 -0.0379232 -0.0849822 0.0362196 -0.0337258 -0.00654597 0.00774322 0.0580682 -0.049162 -0.144108 -0.025145 -0.0469295 -0.00829582 0.0524745 -0.0288029 0.0840349 -0.028683 0.0867122 0.0653263 0.00892759 0.15588 -0.0357342 0.0327366 -0.0227476 -0.0235629 0.120107 -0.0751091 0.0112463 -0.0169924 0.0153043 -0.0407854 0.0825466 -0.0588491 -0.0786584 -0.0430317 -0.0100168 -0.0300055 -0.0109081 -0.0302111 0.072926 -0.00326645 0.00632943 -0.0372318 -0.0777802 -0.0822688 0.0321734 -0.00971954 -0.0933632 -0.00978765 0.124341 -0.0984664 0.0407696 0.0431392 -0.00200181 -0.0635557 0.0162683 0.0167668 -0.0100305 0.0228877 -0.0341967 0.0572479 0.182878 0.00869992 -0.0390626 0.112393 0.0599794 -0.0198745 -0.0629258 0.000869125 0.0322694 -0.0450322 0.0960304 0.0314235 0.0557489 0.0955789 -0.0113954 0.0399932 0.0189656 -0.0788077 0.0874524 0.124566 -0.00784607 0.11206 0.0239348 0.0163436 0.0473918 0.0930724 0.0100134 0.0295592 -0.0375229 -0.0458489 0.077834 -0.047124 -0.0232662 -0.0266051 -0.0214025 0.0144893 0.0506598 0.03928 0.0841556 0.0430759 -0.0526525 0.0453237 -0.10784 0.0455099 0.0370865 -0.015704 0.024513 -0.00511861 -0.0501696 0.0174721 -0.0607307 0.025767 -0.0956367 -0.0395598 0.0719128 0.0181277 0.0544985 0.0522225 0.0695407 0.0240578 -0.0151278 -0.0386814 0.00957894 0.0437233 -0.00978756 0.0294933 -0.00169448 -0.0341158 0.0777953 -0.0265335 0.0589304 -0.131772 0.0186151 0.0254515 -0.107073 -0.0587003 0.106932 0.0401574 -0.076528 -0.0515113 0.0432059 -0.0950459 -0.113129 0.0246933 -0.0239394 -0.00714682 -0.0952152 0.075782 0.0896284 0.059886 0.0786008 -0.01616 0.0971628 -0.0737846 -0.0812428 0.0160743 0.0281305 -0.046631 -0.144369 -0.0178303 -0.0240909 0.0131116 -0.0330653 -0.00534588 0.0690473 -0.0650904 -0.0176525 0.0136572 0.0663267 0.0313896 -0.0342592 0.0514435 -0.0508507 -0.0787865 -0.00163343 0.0117782 0.0234444 -0.00685114 0.00342022 0.0119572 -0.0516033 0.121762 0.0482058 0.0232947 0.075435 0.0459757 0.00490542 -0.018039 0.0544 0.0613547 0.0816049 -0.0490284 -0.021045 0.0536005 -0.0247661 -0.0348725 0.0486533 0.0397272 0.101469 -0.0580892 0.0747504 0.0725738 0.0355116 0.0479827 -0.0348443 0.0666774 -0.0355725 -0.0192916 0.0117765 0.0203035 -0.0780007 0.0265926 -0.0186997 -0.0246333 -0.0143575 0.030428 0.0655202 0.0302904 0.0650861 -0.0424543 -0.0087386 0.0659873 0.0235042 0.0563423 0.037 0.0110717 0.120771 0.0963698 0.0926936 0.113326 0.0130286 -0.0787136 0.0304787 0.101339 -0.0417931 -0.0224076 0.0124673 -0.00740251 0.0540422 0.0423201
' -0.114073 -0.0312558 0.0741302 -0.0975043 -0.018173 0.070532 0.0218337 0.0300018 -0.145944 -0.0470319 0.0760476 -0.0456164 -0.0229666 -0.0627491 -0.0320397 -0.084076 -0.0746239 0.110996 -0.019772 0.0757225 -0.0262026 0.0408664 -0.0519178 -0.00365695 -0.0632533 -0.00772324 0.0688646 0.0348631 0.00515582 -0.00837829 -0.063944 0.0892908 -0.0500814 -0.03781 -0.0283915 0.0293121 -0.065357 -0.0226573 0.0822398 0.0254062 0.0466179 -0.0167456 -0.00496968 0.0180172 -0.0396724 0.0496683 -0.0184857 0.00797726 -0.0245035 0.00401582 0.0813097 -0.0171326 0.0416925 -0.0476685 0.00993003 -0.0235285 0.0304947 -0.00712602 0.0384726 0.139196 0.0191158 -0.0346628 0.0847234 0.0306488 -0.0225123 0.030978 0.0135974 0.00318551 -0.0414852 -0.053112 0.0424786 0.00683156 0.0476054 -0.0254385 0.0288694 0.100517 0.0587037 0.0701309 -0.00396507 0.091594 -0.0449776 0.0972595 -0.029138 -0.00836955 0.00953786 -0.0970572 0.0367176 -0.0295187 0.0323745 0.00522585 0.0034631 0.0545914 -0.0478455 0.0190943 -0.00678044 -0.0258425 -0.0355779 0.0130156 0.112419 0.0510123 -0.0530201 -0.0438935 -0.0161682 -0.00543555 0.0624971 0.00139441 -0.0431962 0.0347203 0.0383438 -0.0732342 0.0389561 0.0871831 0.00498309 -0.0858099 0.00191973 0.00116185 0.0236124 0.0533619 -0.039158 0.0679874 0.122755 0.0659028 0.131539 -0.0190685 -0.0142841 -0.114052 -0.000115233 0.00821639 0.0211492 -0.0206031 0.0575767 0.0235154 0.0158199 0.0892927 0.0701811 0.0611507 -0.0688483 -0.0566454 0.0539281 0.0719988 0.00769568 0.0746043 -0.0239714 0.0499137 0.0368933 0.0990027 0.0414646 0.058737 0.0361272 -0.0330968 0.0208242 0.0792356 -0.116475 -0.0651484 -0.1524 -0.0109312 0.0202862 -0.0476107 0.0643185 -0.109862 -0.0748312 0.110347 -0.0636395 -0.00697159 0.144262 -0.0604337 0.0333901 0.0461022 0.0629307 0.0244606 -0.0716501 -0.0411209 -0.053282 -0.0799258 0.0426807 0.0385732 -0.00760665 0.00415195 0.042843 0.0179618 0.0271882 0.0879445 -0.0451776 0.0754473 -0.0525636 0.00272917 -0.0137964 -0.00828142 0.0666161 0.0162151 -0.053876 -0.0622934 0.0990658 0.0479223 0.0223351 -0.0828746 0.104288 0.0172954 -0.085575 -0.0847425 0.0383192 -0.0595933 -0.0814793 0.109775 -0.0119229 0.00232688 -0.0787796 0.035307 0.144853 0.0126711 0.116907 -0.0823617 0.0032811 0.00768808 -0.06703 -0.0949485 -0.0170097 -0.0809441 -0.0349575 -0.00333596 -0.0420333 0.0897719 -0.0305674 0.00199382 -0.0293865 -0.0939486 -0.024099 0.0190917 0.0186577 0.0365838 0.0320781 -0.00207475 -0.0337208 -0.0407758 -0.040408 0.0599946 -0.0176307 -0.0412569 0.0174566 -0.00600176 -0.137757 0.00421966 -0.038943 -0.0063107 0.0502928 0.104009 0.00371348 0.0388014 -0.0282843 0.00301376 0.0663833 0.0813578 0.0103793 -0.0691678 0.0188193 0.00880131 -0.0075526 -0.0241569 0.0276922 -0.0746215 0.0059511 0.055277 -0.00984617 -0.0515681 0.0564847 -0.00890431 0.0571355 0.112403 0.070168 0.00607968 -0.1084 -0.0194905 0.00141938 -0.0790262 0.0191952 0.0574424 0.0553525 -0.0482126 0.0743879 -0.0493174 0.00097029 0.0693061 0.0103725 0.0709578 0.0427287 -0.00596771 0.115701 0.128571 -0.0257991 0.0217383 0.00699973 -0.0837876 0.0480529 -0.0067 -0.0538683 -0.0733443 0.0383893 -0.0772746 0.112699 0.00615424
en -0.0590758 -0.0483179 -0.0318995 0.084386 -0.0274699 0.0794659 0.0124864 -0.0612966 0.0298992 0.143723 0.0871138 -0.00917654 0.0908938 -0.0655014 -0.0457211 -0.0561958 0.0315843 -0.0627067 -0.0103021 0.0819075 0.0170484 0.012468 -0.0764509 -0.000585016 -0.0843109 0.0214877 0.0246911 -0.0595304 -0.0181194 0.0149061 -0.114782 0.0530285 -0.0903588 0.0960164 0.0525143 -0.0471 -0.057768 -0.133608 0.114443 0.00796341 0.038471 0.00647699 -0.0440802 -0.0291283 -0.00227388 0.0108008 -0.07375 0.0893159 0.0504155 -0.0376938 -0.0335416 -0.0093318 -0.0837017 -0.0333579 -0.119569 -0.0302861 0.000609498 0.0268279 -0.0835832 0.0864078 0.000649757 -0.127723 0.104159 0.00828183 0.0383668 -0.00334397 -0.0736473 -0.0488272 -0.0644406 -0.0467206 -0.142849 0.0180744 -0.0474859 -0.0820552 -0.030593 -0.0174321 0.122671 0.0482941 0.0269891 -0.026739 -0.0016371 -0.0320604 -0.0741638 -0.0170708 0.031335 0.0268075 -0.0854796 0.0672744 0.0782725 0.0027946 0.0534609 0.00297586 0.0730418 -0.0557065 0.0252936 0.0411278 0.0292437 0.0177511 0.0606396 -0.0615789 -0.00774663 -0.0962784 0.094767 -0.0271361 -0.0347608 -0.0606956 -0.0864957 0.0168663 -0.0180707 -0.0369125 -0.0324596 0.00786711 -0.047075 -0.0498506 -0.0439021 -0.00845802 0.0534942 -0.0183988 -0.075501 0.0413304 0.118601 0.0878325 -0.0712255 0.085653 0.0539871 -0.00113637 0.109162 0.0121152 0.00253749 0.0712751 0.0944356 0.0614511 -0.0815518 0.0133153 0.0534395 0.07381 0.0590841 0.0206015 0.0161718 0.0538132 -0.0214475 0.0795623 0.0275211 -0.0173769 0.11315 0.0911097 0.0230895 0.00175761 0.0300776 0.0236121 0.0868021 -0.0956859 -0.026028 -0.0391621 0.00409968 -0.0505884 -0.0470635 -0.00691008 0.112226 0.0241266 -0.0497155 0.0853469 -0.0314325 0.0704213 0.0997749 -0.0751514 -0.0429036 -0.0267941 0.0759363 -0.106322 0.0248943 -0.0121279 -0.0791589 0.0433165 -0.0293859 0.086456 0.0507515 0.0538259 -0.0203975 -0.0380108 0.0455408 -0.0913619 0.0727294 0.0621244 -0.00558504 0.157046 0.0104287 -0.101634 0.0245285 0.0135533 -0.00916597 -0.0398507 0.00530177 -0.03441 -0.0308904 0.0119175 -0.0156275 0.0657786 -0.0455044 0.0592994 0.111429 -0.0112894 -0.103242 -0.0100157 0.0105809 -0.0151528 -0.0189997 0.0346482 0.0709502 0.0267803 0.135049 -0.0465151 0.0193169 -0.0217894 0.0128659 0.0227691 -0.029664 -0.0457499 -0.0183103 -0.0179473 -0.00883164 -0.0829597 -0.0664656 0.0377429 -0.0946315 -0.0244414 -0.0399867 -0.00616855 0.0460543 0.0306283 0.0512696 0.0511166 -0.0645733 -0.0253163 -0.0881724 0.0215593 0.0361551 -0.094322 -0.0155645 0.000711693 -0.0167377 0.0251063 0.0355452 0.0183923 0.0337735 0.0680276 0.0300207 -0.13889 0.0502432 0.00215913 0.0438461 -0.0778504 -0.00067131 -0.0441752 -0.0596462 -0.0121888 -0.0285516 -0.00616828 0.0624403 0.0636944 0.00858492 0.0517097 0.0137146 -0.00260513 0.00589703 0.0302318 -0.0138643 0.0955623 0.015767 -0.00909221 -0.0824247 0.0665133 0.036596 0.0754088 -0.0660727 -0.0557837 0.070014 0.0432295 -0.0468028 0.00275778 0.0381836 0.012053 0.084675 0.04163 0.037009 0.0314375 0.0177985 0.0400171 -0.0220028 0.0606254 0.0639469 -0.00845339 0.123573 0.0740134 0.0596355 -0.0130964 -0.00853011 0.0578772 0.0307856 0.0463943
is -0.00557606 0.0491649 0.0409609 0.00435138 -0.0583804 0.0277272 0.0167037 -0.0785162 -0.142291 0.043769 0.0546425 0.0557894 -0.00718513 -0.0355201 -0.0217235 -0.00318113 -0.0896333 0.0290867 0.0292898 0.0754119 -0.0657071 0.130777 -0.00475187 -0.0342143 -0.0144003 0.00463631 0.0360199 0.0251716 -0.0660581 0.0384838 -0.0342602 0.0980833 -0.0962748 0.033638 -0.020415 0.012691 -0.0381162 -0.0631045 0.0393768 -0.038905 -0.0254355 -0.0198209 -0.0922319 -0.00473618 -0.0537483 0.10099 0.0455968 -0.00014222 -0.0123508 0.0435671 0.0529609 7.35228e-05 0.0714079 -0.0310886 0.0177992 0.0460174 0.0302519 -0.00958615 0.0348507 0.0915448 0.0519628 -0.0340413 0.112992 -0.00187142 -0.0532392 0.0278275 -0.0472507 -0.0103365 -0.0173125 -0.0305262 -0.0184363 0.0504745 0.0307231 -0.0470705 -0.0381689 0.0500936 0.0950832 0.0782432 0.0457927 -0.0246118 -0.068455 0.136991 0.0485576 -0.0333858 0.030071 -0.116193 -0.030857 0.00919646 0.00930045 -0.0603457 0.110991 0.0742259 0.00174247 5.3964e-05 0.0345908 -0.00213609 0.0632715 -0.0318559 0.0702751 -0.0350663 -0.103622 -0.0348151 -0.0421315 -0.0282253 0.0295332 0.0497611 -0.0771348 0.0460534 0.0242687 -0.0783533 0.0247572 0.0820139 -0.0991691 -0.0731296 0.0181524 0.0199551 0.0010697 0.0986498 0.0821047 0.0507907 0.0736996 0.0626158 0.0306565 0.152435 0.0590189 0.00512314 -0.0396581 0.0248274 0.0478433 0.0204954 -0.0087444 0.0218939 0.0296796 0.0929134 0.053006 -0.0333926 0.0216654 -0.0396334 0.0149352 0.0697284 -0.0165847 0.0661023 -0.0338376 -0.00756879 0.0100839 -0.00428012 -0.0711572 0.0297306 0.00245785 -0.0286329 0.0597488 0.010357 -0.0054848 -0.0459933 -0.112763 -0.0308082 0.101966 -0.0427341 0.146862 -0.0447933 0.0371906 0.0734863 -0.101354 -0.0428779 0.114615 -0.0329025 0.0166913 -0.0758947 0.0762602 0.0545442 -0.0438525 0.00678343 -0.0162786 -0.00660295 0.0425524 -0.0569064 0.0363356 -0.0161686 0.0408665 -0.0121141 -0.0781096 0.0179357 -0.0308421 0.0942489 -0.00564773 -0.000372103 0.00555076 0.0174878 0.00739682 -0.0118784 -0.0277392 -0.0834177 0.0168801 0.0549458 -0.00314179 -0.0223485 0.0239362 0.0922768 -0.0423601 -0.00652628 0.0823805 -0.0990113 -0.0960918 0.0855807 -0.0607719 -0.0262908 -0.127259 0.0798753 0.0859209 -0.109861 0.0684069 0.0109617 0.0482337 0.0466828 -0.0517462 -0.0699773 -0.0745912 -0.0729418 -0.0631877 -0.0313323 0.00154492 0.00556435 -0.0300704 -0.0291813 0.0867538 -0.0489595 0.0259363 0.070884 0.0176033 -0.0198799 -0.00588401 -0.0527526 -0.0546425 -0.0144476 0.0075988 -0.0218204 -0.0395033 -0.0896833 -0.00662695 -0.0112351 -0.109935 -0.00127371 0.0553155 -0.0614052 0.115409 0.149446 0.13336 -0.014415 -0.0435191 -0.00944766 -0.0206579 0.122752 0.023638 -0.0417796 -0.0526798 0.0365324 0.0834008 -0.0217964 0.0287844 -0.0425968 0.00566119 -0.00106829 -0.0332699 -0.0835316 -0.043285 0.032704 0.0113938 0.117549 0.0552068 -0.0336402 -0.0789432 0.0347814 0.0314778 -0.0221482 -0.00862833 -0.0648384 0.0648065 0.0405601 0.070905 -0.0556699 0.0618836 0.0360624 -0.0060718 0.0244812 -0.0378781 -0.00524162 0.0740538 0.142506 0.0369283 0.0177216 0.000616159 -0.109415 0.0270566 -0.00840406 0.0149946 -0.133577 0.138155 0.0246385 0.0432425 -0.0378414
op -0.0671133 0.0227243 -0.0310039 0.0446997 -0.0281578 0.0161064 0.0314575 -0.0157449 0.0445708 -0.0174655 0.030702 0.0550011 0.0436717 -0.0105651 -0.0123809 -0.0150408 -0.0473588 0.0141407 0.0848364 0.0976966 0.00542345 0.0197083 -0.0834009 -0.0460021 -0.0591871 -0.0767776 0.00929413 -0.0794405 -0.0257013 0.0407735 -0.0161783 0.0887714 -0.046305 0.020771 -0.0481575 -0.0541381 -0.0577315 -0.0104207 0.12069 -0.0278164 0.0517349 -0.0391552 -0.0427889 0.0689673 0.0325395 -0.0181775 0.0743487 0.0352779 0.0647217 -0.103004 0.035803 -0.122698 -0.00145928 -0.00735784 0.0190736 0.0239871 0.0410379 0.104021 0.00270514 0.0776175 0.0646862 -0.115848 0.0380091 -0.0512765 0.0111561 -0.0668076 0.0345398 -0.0395849 -0.0129778 -0.0106819 -0.0607222 -0.00632158 -0.0183769 -0.0457021 -0.0607646 0.0715161 0.0528225 0.102424 0.0530484 -0.0826323 0.0131225 0.0440091 0.0176886 0.0360738 0.0258586 0.0303765 -0.0726125 -0.0115494 0.0123175 -0.140777 -0.00982892 0.0517539 0.0893891 -0.0830635 0.00958496 0.0217803 -0.0366626 -0.0415726 0.0144073 -0.0340722 -0.0840922 0.0142242 -0.0415556 -0.0172044 -0.0502731 0.00465968 -0.0981524 0.0620768 0.00756599 0.096378 0.0355665 -0.0124154 0.00628957 -0.0497542 -0.0260614 -0.0628421 -0.0303583 -0.0164642 0.0433423 -0.00747535 0.126906 -0.0353424 -0.0808215 0.109609 -0.0150521 0.0643913 0.144855 0.166702 0.0275278 0.0161771 -0.0464953 -0.0460385 -0.00465948 0.0163746 -0.0318173 0.0108231 0.0902727 0.00403041 0.00751979 -0.0578612 0.0113632 0.0795723 -0.0167895 0.0509079 -0.0547296 0.0561437 0.0689213 -0.0669914 -0.00983373 0.0748859 -0.0535229 -0.0788744 -0.0774794 0.019282 0.072001 -0.106577 -0.0711862 -0.0173984 0.089772 -0.0336469 -0.0417359 0.0715501 -0.0506919 0.0311883 0.103987 0.0337669 -0.0149952 -0.000421445 0.0518224 -0.0463527 -0.0780674 0.0352691 -0.147496 -0.0153576 -0.05906 0.0499481 -0.0434086 0.0894044 -0.00256214 -0.0529197 0.020469 0.000330724 0.0206624 -0.0414019 0.0335589 0.118643 -0.0200159 0.0270984 0.0921234 -0.0557981 0.0507245 -0.0620609 0.010212 -0.0170832 0.0208319 -0.0665917 -0.054413 0.0457305 -0.120682 -0.0267457 -0.0468336 0.100677 -0.0069148 0.0110139 0.0890965 -0.0594473 -0.011729 -0.0189028 0.133504 0.0553697 0.139603 -0.0552605 -0.0440068 0.00202403 -0.0085032 0.00869056 0.0288304 -0.116058 -0.0445111 0.00629201 -0.0208713 -0.0500165 0.0185222 0.0263377 -0.00966077 -0.0382988 -0.0479438 -0.012278 -0.00142763 0.0801833 0.0743031 0.0390886 -0.052836 0.0232353 0.0409914 0.0920822 -0.0401893 -0.0273689 -0.0214723 0.023564 0.0462412 0.0162889 0.107987 0.0250131 0.0380959 0.141206 0.0714196 0.0474733 0.087697 0.101938 0.0572764 -0.00487728 0.043847 -0.0867252 -0.150403 0.0555812 -0.0575812 -0.0729537 0.00690645 0.0459685 0.0953553 0.0675198 0.00407092 0.0132992 -0.0173726 -0.00844565 -0.0226352 0.048722 -0.0099692 0.0139315 -0.0732774 0.0251421 -0.0522476 0.0908902 -0.127726 -0.0624429 -0.0451631 0.0730263 -0.0134714 0.0251366 0.028743 0.0165559 -0.0478625 0.014814 0.0387445 -0.0542695 -0.00232098 -0.051209 0.000910648 -0.0952755 0.0510053 -0.0363513 -0.0136038 -0.0360579 0.100594 -0.00788734 -0.056603 0.0309188 0.0299166 0.0459463
voor -0.0425634 0.00615795 -0.0205665 0.0377694 0.0141778 0.00101205 -0.00443919 0.00686993 -0.0275403 0.0611948 0.0493098 -0.0630287 0.0779674 0.0679981 0.0505842 0.0118897 0.0448712 -0.0455508 0.108699 0.0617999 0.0268228 0.0357389 0.0232782 -0.0674015 -0.105262 0.0441705 -0.0104662 0.0448603 -0.00671632 -0.0122262 -0.0716057 -0.0467538 -0.110357 0.00278356 0.113318 -0.00695911 -0.0215843 -0.0812419 0.0778315 0.0101763 -0.034909 -0.0481374 -0.0469878 0.0517392 0.0564462 0.044516 0.0192203 0.0188639 0.0188927 0.00973355 -0.0124385 -0.0791057 -0.0178728 -0.0508435 -0.0806065 0.013364 0.0565868 0.090449 -0.018073 0.084003 0.00985221 -0.0393543 0.0934744 -0.0712553 -0.00420208 -0.0433791 -0.0120059 -0.0698798 -0.0946115 -0.0321409 -0.0119997 0.0403113 -0.0487859 -0.0828114 0.0114584 -0.0015829 0.0891757 -0.0159718 0.0346915 -0.0153301 -0.0754005 0.0749751 -0.0911742 0.0711381 0.028218 -0.0836209 -0.0968064 -0.0239157 -0.0364933 -0.0412528 0.00901468 -0.00025061 0.0967035 -0.0815841 0.0566636 0.107737 -4.89743e-05 0.0521809 0.00992407 -0.0363574 -0.062032 -0.0592918 0.0328041 -0.00426495 -0.089323 0.0516795 -0.0089852 0.0424715 0.0147935 0.047552 -0.0117205 -0.0695657 -0.0466927 -0.0177706 0.0386373 0.114101 -0.0223519 0.0290845 0.00591718 -0.0553708 0.0627507 -0.00123451 -0.00211307 0.0687954 -0.0152389 0.0416978 -0.0343627 0.000909724 0.00148564 0.0476582 0.0357662 0.0639964 -0.0632698 0.0469267 0.0442351 0.0810491 -0.00760861 -0.0532682 0.0584226 0.0431803 0.0420646 0.104249 0.0402376 -0.0393631 -0.0154082 1.18125e-05 -0.0502414 0.0432114 0.00673504 0.0637957 0.0483601 -0.0878875 -0.0158145 -0.0263132 -0.100985 0.0415747 0.0336162 -0.0437039 0.0580694 -0.00557458 -0.0776983 0.0898908 -0.0627382 -0.0407446 0.118368 0.00245893 0.0242588 -0.037808 -0.0445289 0.0298755 -0.0280899 -0.0578152 0.0161869 -0.0548974 0.0202225 -0.0473947 -0.0266623 -0.00146496 -0.00567808 -0.0401121 -0.160668 -0.113419 -0.113473 0.0307027 -0.0334113 0.0142607 -0.0527004 0.000329271 -0.0137669 -0.00128437 -0.0405447 -0.103501 0.0171539 0.0335674 -0.0395604 -0.0255547 0.00506909 0.0534555 -0.0560247 -0.00872249 0.0141079 -0.00378646 -0.0345432 -0.06134 0.0105507 -0.031405 -0.154294 0.15807 0.119046 0.0351141 0.114691 0.0434537 -0.0148193 -0.0581228 0.0168612 -0.0113711 -0.000574186 0.0021327 -0.0021873 -0.0471955 -0.00388083 -0.0635541 0.0294159 -0.0417991 -0.000500934 0.0302505 0.0119381 -0.0283306 0.0657989 0.0174432 0.0466183 0.0349816 -0.148499 -0.0794403 0.0148519 0.0292347 0.032387 -0.0544871 -0.0283316 0.00759421 -0.0125455 0.0341453 -0.0186555 0.0191149 0.0615543 0.0812849 0.200185 -0.0706882 -0.0824235 0.0326308 0.0855356 -0.0195107 0.0297959 -0.0305797 -0.0572317 0.0450213 -0.167941 -0.103153 0.0173263 0.0569364 -0.123573 -0.00467023 0.0498098 0.0324443 -0.0375709 0.0127565 -0.0344337 -0.0565716 0.0548755 -0.0151422 -0.124755 0.000479136 -0.0229991 -0.0418202 -0.0477647 -0.0467472 -0.043396 0.0279025 0.05137 -0.0175768 0.0851447 0.0040966 0.0420484 0.049715 0.0891958 0.0113253 0.0563473 0.122878 -0.0061055 0.0639203 0.0587253 -0.0439003 0.0687929 -0.00356994 0.0393582 -0.203663 0.0325008 0.0739309 0.042575 0.00549441
met -0.0664495 0.0498296 -0.0253585 0.114056 -0.00100004 0.020827 0.0707404 -0.0889322 0.125244 0.0591569 0.0744442 0.0346307 0.00650644 -0.00695206 -0.0216489 -0.054097 -0.0389589 -0.0788169 0.0299387 0.0243082 0.0210622 0.0156436 -0.0455946 -0.0890939 -0.0204865 0.00944609 0.0395195 -0.0256544 -0.0252774 -0.0228855 -0.0488188 0.0494405 -0.0114798 0.00440529 0.0270782 -0.0222197 -0.0739865 -0.00784237 0.107919 0.0152846 0.151632 -0.0133046 0.0154597 0.0289138 -0.0441592 -0.0223074 0.0381361 -0.00610245 0.0921686 0.00314845 0.0174153 0.0121898 -0.0219524 0.015908 -0.0595473 0.0381344 -0.0178597 0.0187801 -0.0888051 -0.0626309 0.0179265 -0.0585769 0.0413496 -0.118369 0.0301301 0.0201846 -0.0221208 0.0924353 -0.0173028 0.0206238 -0.0982389 -0.000939607 -0.0757165 -0.0365215 -0.0495354 -0.00272261 0.0343717 0.139053 0.034363 0.0340101 0.0689031 -0.00377089 -0.00136783 -0.0479612 -0.0129859 -0.031617 0.00516665 0.0370949 0.0192289 -0.0814312 -0.0668486 -0.0259506 -0.0213513 -0.0407102 0.101818 0.0820229 0.0395524 -0.053815 0.00375084 -0.00389515 0.0228248 -0.0554507 0.0664464 0.0251389 -0.0574675 -0.0630069 -0.0393661 0.072769 0.00499995 -0.029845 -0.000104296 0.0242256 0.0117202 0.0277582 0.103097 -0.0698119 -0.0226064 0.0282798 0.0493232 0.0962671 0.0998233 -0.0648281 -0.0813927 0.0889373 0.0288875 -0.0851567 0.126391 0.0210799 0.0787377 0.131166 0.0794183 0.0425059 -0.0499337 -0.00746474 0.0174511 -0.0823772 0.0980418 0.0529107 0.0437404 0.0416825 -0.0642982 0.0704576 0.0434063 0.0762187 0.0170091 0.112282 -0.00556672 -0.0164218 -0.053534 0.02545 -0.0163082 -0.0225916 -0.0641013 0.0453243 0.0155835 -0.134547 0.0522794 -0.0212734 0.0948151 0.00842287 0.0114382 0.0865456 -0.00647126 0.0605027 0.0551746 -0.0883598 -0.00215291 -0.0487345 0.0282492 -0.0509732 -0.0589912 -0.00266931 -0.0638227 0.0316163 -0.0597828 0.104077 0.0409015 0.0385687 -0.0578931 -0.0599173 0.106778 -0.108377 -0.00789548 0.0370885 0.00759974 0.125115 0.0790897 -0.000470251 -0.0531004 -0.0767568 0.00883821 -0.148241 0.0993014 0.0455728 -0.0420502 0.0233716 -0.0332138 0.0648193 -0.0625229 -0.0590511 0.0803859 0.112241 0.0110961 0.0170426 0.0519048 -0.0613081 -0.0942504 -0.00189774 0.106742 0.0352809 0.09316 -0.0254322 -0.0230481 -0.0534725 0.0239358 -0.0343428 -0.0487176 -0.0336835 -0.0532418 0.00158215 -0.0405715 -0.0670405 -0.0717752 0.10514 -0.0525696 -0.0406962 -0.0703865 -0.00650543 -0.0594769 0.0528692 0.0201041 0.0401484 0.0661226 -0.00799978 -0.0362593 0.102752 0.0147924 -0.0154063 0.0014009 0.0569866 0.0013398 -0.011357 0.0344899 0.0407526 0.0263578 0.0658646 -6.32512e-05 -0.04788 0.0233238 -0.00594501 0.0242581 -0.143244 -0.081929 -0.0251003 -0.0303061 -0.004758 -0.0950354 -0.0516264 0.0317266 -0.00900142 0.0164129 0.0799903 0.0883375 0.0335305 -0.0240329 0.00626605 0.0168537 -0.00124418 0.086241 -0.0895954 -0.0215139 0.0229854 0.0106064 0.0641727 -0.0530019 -0.0836907 0.0163913 0.0996633 0.0993728 0.0946248 0.00338487 -0.0184875 0.0639801 -0.0496184 0.0277546 -0.00473717 0.00467444 0.100376 -0.0392221 -0.0243808 0.00479588 -0.0573793 0.0709066 0.0472565 0.0274445 -0.0471913 -0.00530203 0.126674 0.0722148 -0.0560996
door -0.0512109 0.0260281 -0.0839124 0.0474645 -0.0645211 -0.0346897 -0.00245342 -0.102004 -0.044098 0.149342 -0.0207207 0.0627763 -0.074859 -7.75699e-05 0.0820871 0.0477782 0.0224633 -0.0217505 0.00370693 0.0544332 0.0167628 0.0496846 -0.0471279 -0.0654207 -0.0323943 -0.0399319 -0.00488409 -0.0325172 0.0218468 0.0228995 -0.0766099 0.0674446 0.00517921 0.0613051 0.115445 -0.00972109 -0.0818479 0.00352798 0.124252 -0.0205458 -0.056474 0.0364204 -0.0423676 0.0788767 -0.0274894 -0.0121783 0.036394 0.0230649 -0.0933071 0.0709459 0.0331616 -0.0168844 -0.0773196 -0.0713429 -0.0166471 -0.0308117 0.0180059 0.0362419 -0.0557907 0.0173741 0.0136358 -0.11504 0.0376559 -0.000171176 -0.0590878 0.0387321 -0.028315 -0.079999 -0.0667743 0.00255588 -0.00707266 0.0496236 -0.0938349 -0.0573298 0.00146328 -0.0340226 0.0991332 0.00822429 0.00558044 -0.0602552 -0.0313815 -0.0286326 0.0231322 0.0156941 -0.0421061 -0.0569568 -0.0298926 -0.0118246 -0.0463632 -0.0353823 -0.0311445 -0.0435379 -0.0363211 -0.0945083 0.116421 0.032834 0.074261 -0.0324612 0.00774686 0.0158099 -0.0863903 0.050634 0.0337371 -0.0527379 0.00986076 -0.018452 0.0112813 0.0147296 0.109615 -0.0408538 0.0330709 -0.00396595 -0.00387067 -0.00793462 -0.00798008 0.0609966 0.13125 0.151368 -0.008937 0.00244123 -0.0226163 0.0752845 -0.0504028 0.0985656 0.0553569 0.0920566 -0.0184439 0.0712185 0.0360485 0.101544 0.0164206 0.0547046 0.0617616 0.0574919 0.0954605 0.0684976 -0.00601742 -0.019345 -0.0674015 0.0427959 0.0974779 0.0742347 0.048346 -0.0457384 -0.0474123 -0.0287648 -0.0065573 0.0525788 -0.0416771 0.115074 0.0517497 -0.0199982 -0.035524 -0.0495832 -0.0356674 0.0153448 -0.0212812 -0.0523115 0.0552026 -0.0500807 -0.0193935 0.0648833 -0.0705207 -0.0176629 0.11062 -0.0399229 -0.000279365 -0.0131772 0.0431258 0.0426477 -0.0627041 0.052363 0.00556141 -0.039568 0.00612423 -0.0377998 0.0018743 0.047782 0.00624455 -0.0495429 -0.0506702 -0.120257 -0.105614 0.0266448 0.0400141 0.109255 0.02671 -0.0446525 0.0234099 -0.0762968 -0.0442257 -0.11126 0.0884275 0.0429098 0.0329338 -0.063932 -0.066732 0.00871789 -0.077073 0.00186255 0.0648126 -0.0327285 -0.0497413 -0.0228499 0.0100037 -0.0950077 -0.133818 0.0863565 0.0901027 0.0325558 0.133749 0.0559913 -0.078801 0.0439816 0.00822475 0.034537 0.0806271 -0.0329699 -0.0176662 -0.0293074 0.0291023 -0.125867 -0.02686 -0.0387198 0.0231704 -0.0324255 -0.0601045 -0.0115504 0.0211695 0.0491849 -0.0680958 -0.0611131 -0.033674 0.0243773 -0.025405 0.0120404 0.0246478 -0.0163859 -0.00142697 0.0116907 -0.0310608 -0.0109154 0.0397704 -0.0473962 0.0475027 0.00140672 0.0139373 -0.111625 0.041795 -0.0380903 0.0243149 0.0621328 0.0685724 -0.0402718 -0.0586016 0.0860869 -0.0949555 -0.0730196 -0.130121 0.0207212 -0.00987023 -0.0204578 0.00600062 -0.0494672 -0.113233 -0.0984122 0.0509162 -0.0894181 0.0225598 -0.0082837 -0.0868562 0.0040345 -0.0214048 -0.0519418 -0.109885 0.00680939 0.0473437 0.056385 0.0352036 -0.0288158 0.0362985 0.0146983 0.013222 0.0453968 0.0216739 0.00494683 -0.0379657 0.142318 0.0176094 0.0207676 0.0992615 -0.114068 0.0615984 0.0396462 0.0122049 -0.111575 0.0910129 0.10525 0.010362 -0.0486749
zijn -0.0415477 -0.0294058 -0.0508463 0.105695 -0.0251053 0.000713782 0.0732256 -0.00711305 -0.00500728 0.191056 0.0891178 0.0778411 0.0169506 0.00845087 0.0027146 -0.0679505 -0.020713 0.0426252 -0.0723453 -0.000288924 -0.0252945 -0.00374287 -0.0808491 -0.0357386 0.0353956 0.0616216 0.0643504 -0.0545731 -0.0278206 0.0968023 -0.0231235 0.0321093 -0.0185869 0.0608287 -0.019632 -0.00210517 -0.0517969 -0.030614 0.00254516 -0.0448784 0.036606 -0.0428233 0.0238658 -0.0119939 0.0291302 0.0320621 0.0713594 0.00541874 0.0716167 -0.0466289 -0.0411267 -0.036776 0.0347392 0.0320666 -0.142079 0.0105983 -0.0490563 0.0326541 -0.0290743 0.0686413 -0.0620889 -0.0686649 0.10967 0.0230722 -0.0445258 -0.0138908 -0.0430007 0.0138622 -0.0131843 0.00353998 -0.0423089 0.0135186 -0.042686 -0.171426 -0.100847 -0.0248635 0.162533 0.0788676 0.0547731 -0.0434204 0.0505535 0.118783 0.0158354 -0.0114207 0.00259403 -0.0530999 -0.0310377 0.0409602 -0.0512395 -0.0904305 0.041711 -0.0104036 0.111856 -0.0454835 0.0387484 0.0170482 0.0104402 -0.000988495 -0.0407566 -0.046557 0.0417203 -0.039826 0.0660862 -0.049864 -0.0782356 -0.0574246 -0.0805148 0.0719762 0.00494382 0.0732808 -0.005352 -0.0217226 -0.0370247 -0.0297165 0.016183 -0.0576048 0.00424819 0.00673434 0.0543634 0.0762157 0.0704135 0.0915748 -0.0102582 0.124597 0.0241756 0.00695338 0.0312473 0.0415469 0.0180402 0.0748027 0.039583 0.0687977 0.0128697 -0.0461118 -0.0462464 -0.0512524 -0.0822254 0.00804003 -0.0238455 -0.026783 -0.0175337 0.00982684 0.108446 0.00323732 0.0436618 0.110458 -0.058223 -0.0768927 -0.106849 -0.0102569 -0.017067 -0.0948247 0.0206674 0.0542317 -0.0779711 0.00927092 -0.0285021 -0.0361732 0.0378253 0.0138835 -0.0404258 0.112035 -0.0628245 0.105972 0.0248161 0.0254199 0.0297889 -0.0688284 0.0777984 0.0099388 0.0173089 0.0118841 -0.0873974 0.0347667 -0.0476779 0.10634 -0.00710181 0.0791228 -0.0473187 -0.0552186 0.00705135 -0.108845 0.0504063 -0.000895455 0.0531614 0.103004 0.0910166 0.015023 0.0499373 -0.043068 0.0035975 -0.0838709 -0.0369958 0.0846231 0.0205589 0.019636 -0.0725671 0.0604358 -0.0716808 0.0113112 0.00121583 -0.0797976 -0.00190351 0.0641726 0.0524737 -0.10729 -0.0260137 0.0413989 0.0802035 -0.0350027 0.110181 -0.0625341 0.00302413 0.00094007 0.090517 -0.00454366 -0.04113 -0.0715121 0.00399395 0.0406531 -0.00446557 -0.0437335 -0.0937576 0.0543172 -0.0248665 0.0654428 -0.11721 -0.0864614 0.00940273 -0.0312443 0.0280519 0.0272999 -0.0558619 -0.135596 -0.0206275 0.0960295 -0.0160487 -0.0190746 0.0645592 0.0161978 0.036475 -0.0559615 0.0210695 0.089774 0.00736096 0.0803702 0.0477631 -0.0697286 -0.0631944 0.00459626 -0.00826334 -0.016276 -0.0759356 -0.0612864 -0.115697 -0.0250886 -0.00538394 -0.00552552 -0.00953949 -0.042947 0.0080427 0.086647 -0.0452285 0.0515485 -0.0885036 -0.0434253 -0.030716 0.0819465 0.0264515 0.0115901 -0.0909611 0.0481728 0.0177513 0.0843306 -0.0632064 -0.146964 0.0658732 0.026831 -0.0320478 0.0491987 0.0836802 0.0120082 0.0423266 -0.0189155 -0.00705095 0.0946315 -0.0225138 0.0822423 -0.0118214 0.000147109 -0.0439135 -0.0865368 0.023118 0.0201328 0.0485097 -0.0192613 -0.0102951 0.0554664 -0.00776424 0.0157997
uit 0.0110672 -0.0358506 0.0717629 0.0454136 0.0562063 0.0285831 0.0346086 -0.0625903 -0.0950279 0.120798 0.0348166 -0.00891009 -0.0583723 -0.000572091 -0.0775322 -0.00493488 -0.0106947 0.0340166 0.12131 0.0268401 -0.0214835 0.0189494 -0.0908517 0.0532005 -0.0573587 0.0154392 -0.0522223 0.0292945 -0.0592629 0.0943272 -0.0237505 0.00987713 -0.0388995 0.0210539 -0.0238386 -0.033395 0.0740212 -0.115955 0.0261092 -0.020275 -0.00938834 0.0128027 -0.0638164 0.051214 -0.0670353 0.0447647 0.0692033 -0.0517784 0.0110927 -0.0049014 0.0104748 0.0268322 -0.013642 -0.0346089 -0.0415504 0.0694946 -0.08376 0.00528321 0.0186635 0.165881 0.0278091 -0.0700253 0.12298 0.0415538 -0.0426881 -0.0303272 -0.0577654 0.0959597 -0.0570996 0.0408976 0.0336409 0.120093 0.0564386 0.0338954 0.06878 0.0516888 0.0601628 -0.00554631 8.31743e-05 0.0400935 -0.0501472 0.0819251 -0.0181131 -0.014104 0.0585694 -0.0919871 -0.0106387 -0.0245259 0.0492538 -0.0854276 -0.0574591 -0.0346822 -0.0653915 0.0115948 -0.0113521 -0.00131785 0.04071 0.00148277 0.139334 0.00566642 -0.0202129 -0.0161005 0.0145779 0.0292565 -0.0180537 -0.039667 -0.0243326 0.0760425 -0.000351996 -0.0831356 0.0166569 0.0589021 0.0652808 -0.0895371 -0.0450492 0.0958303 0.00675864 0.0885332 -0.0214968 0.0466028 0.0404455 0.0366317 -0.0351434 0.090123 -0.0362846 -0.0108928 -0.0598717 0.0116329 0.0564524 -0.0061416 0.0959892 -0.0167755 -0.0692818 0.166136 0.0879975 0.0129897 -0.047998 -0.039929 0.0250345 0.0369277 0.153272 0.0899996 -0.011154 -0.0426122 0.0914854 0.0990166 0.0370572 0.0264475 -0.0204436 -0.0379211 0.00381488 -0.0714346 -0.0344892 -0.0463349 -0.125383 -0.0104114 0.0120777 -0.0123375 0.0594604 -0.0675442 -0.0239291 0.0553945 0.0154354 -0.0574733 -0.0151445 0.0345605 0.0684385 -0.0347041 0.171204 -0.0345674 -0.0417022 0.00855007 -0.0307564 -0.00711147 0.0652676 0.00204551 0.0242713 0.0388147 0.0817397 -0.00437911 -0.00316349 -0.0590853 -0.0803165 0.0153929 0.0107125 -0.0499941 0.0156259 0.0286687 -0.00405323 0.0363751 0.0470387 -0.0466374 0.114456 0.0410745 -0.0251484 0.0124062 0.01899 0.0772375 -0.0197192 -0.110898 0.0946273 -0.0350006 -0.0958278 0.0796031 -0.0535043 -0.0797359 -0.163969 0.109604 0.0808439 -0.0224868 0.0396923 0.0218696 0.000554033 0.0237825 0.0400079 -0.0238089 0.0343781 -0.113565 0.0254143 -0.0120752 -0.0265681 0.0370103 0.0306341 0.0357912 -0.0347521 -0.0807877 -0.020902 -0.0113303 0.0778973 -0.00680871 0.0706916 0.00798612 -0.0669338 0.0803588 0.00471793 0.0501678 0.00465263 -0.103128 0.0173353 -0.0227654 -0.106751 -0.0229022 0.0443674 -0.0195481 0.0737319 0.0810067 0.0405705 0.00371841 -0.0609361 0.0534283 0.0807819 -0.0151036 0.1316 -0.0305775 -0.0103202 0.0418814 0.0217027 0.0149262 0.00124076 -0.0508182 -0.0151519 0.0118178 0.0652194 -0.0666427 -0.0224673 -0.068212 0.0995954 0.0622886 0.0566307 -0.0633351 -0.116308 -0.0727079 0.0193854 -0.0309901 -0.049845 -0.0341931 -0.0324863 0.0247508 0.0301968 0.0024196 0.113937 -0.00310036 0.0430672 0.0143431 0.0363828 0.00615951 0.115848 0.0938075 0.048216 0.088222 -0.0183311 -0.0630925 0.0351029 0.0616298 -0.0297166 -0.0514248 0.0225833 0.0263973 -0.00746258 0.0188898
te 0.0207229 0.0661686 0.0090564 -0.0455037 -0.0660848 0.0788797 -0.0299735 -0.034685 -0.0081811 0.0643877 0.0429712 -0.00363411 -0.0136055 -0.00564097 0.0464981 -0.11623 0.0326701 0.0608862 -0.0950457 -0.00193955 0.00367303 0.0453587 -0.0488569 -0.0671441 -0.149272 -0.0166431 0.00228456 -0.0325957 -0.0174069 0.0801694 -0.034566 0.0934016 -0.133964 0.0734631 -0.0100501 -0.0795806 -0.00233809 -0.0390026 0.022138 -0.0522325 0.0266538 0.00523226 -0.0185141 0.0113807 -0.00430038 0.114579 0.112613 0.0525891 -0.0067744 -0.0374699 0.0222175 -0.0409205 0.0424901 -0.0019977 -0.0620647 0.0457952 0.0641901 0.0523381 -0.0423208 -0.0145767 0.0159779 -0.102882 0.0911725 -0.00713744 0.0290029 -0.0819288 -0.0448457 0.115538 -0.0528868 0.0736636 -0.0782374 0.0974212 -0.050914 -0.159344 -0.0178844 -0.0278083 0.0706647 0.0834467 -0.0550798 0.0344772 0.0682988 0.0755361 -0.0199613 -0.0657782 0.0322633 0.0147866 0.0477093 -0.016177 -0.10321 -0.00757736 -0.00498088 -0.0380637 0.073216 -0.0916887 0.0349732 0.138394 0.0751884 0.0455216 -0.00807822 -0.0212295 0.0535836 -0.0161451 0.0203948 -0.089381 -0.0828906 -0.0942087 -0.067999 -0.0650634 0.0300354 0.0728145 -0.00744974 0.0431399 0.0263046 -0.0490223 -0.0533609 -0.100455 0.0223215 -0.00866202 -0.03046 -0.00357906 0.0210259 0.0560731 -0.0561521 0.0975355 0.0015368 -0.0434563 0.00247973 0.0250088 -0.0513256 0.0966057 -0.0347729 0.0205261 -0.0629905 -0.0469259 0.0012767 -0.0416129 0.0548727 -0.00492325 -0.0274426 0.0581317 -0.00643826 0.0805206 0.0187297 -0.0606745 0.00574181 0.0674697 0.0777329 -0.0644012 0.0200784 0.0749346 -0.0132711 -0.0242106 -0.0927208 0.0269698 0.0103249 0.000889823 -0.0720654 0.0540278 0.100735 -0.0179005 -0.0950118 0.0299626 -0.0539177 0.0376656 0.0757189 0.00585553 -0.0700548 -0.0252394 0.108307 -0.0456845 -0.0865256 -0.0323302 -0.0612058 0.0679502 -0.0673306 0.192918 -0.00945403 0.0926921 -0.0794774 -0.045932 0.0178197 -0.0468094 -0.0524175 0.0215541 -0.0362004 0.0928205 -0.0216412 0.0671845 0.0797579 -0.0138886 -0.0901682 -0.0188795 0.0379773 0.012113 -0.0739627 0.0312402 -0.046447 0.0717818 -0.133168 0.0224647 0.0494396 0.00528691 0.0495357 -0.00818489 -0.0179576 -0.111533 -0.074959 0.0041388 0.0816419 0.0491735 0.0744203 0.0237957 0.0229384 -0.0514649 0.0434868 -0.00422519 -0.00685344 -0.0934807 -0.0197978 -0.000614587 -0.0320338 -0.0792209 -0.00868963 0.0198137 0.0417768 0.0316106 -0.0449593 -0.0867281 -0.0418152 -0.007252 0.0765271 0.0333548 0.0675981 0.0378882 -0.0883412 -0.0225507 -0.0135986 0.0839185 0.0476548 0.0270142 -0.0153233 0.0298802 0.0436125 -0.014259 -0.0190185 0.0976293 0.0611376 0.0390714 -0.00522483 0.0401619 -0.0134227 -0.0399258 -0.0572686 -0.0178587 -0.0913901 0.00901343 -0.000981018 -0.059537 0.0040515 -0.00966496 -0.0569127 0.0250088 -0.0307001 -0.000307969 -0.132888 -0.0500931 -0.0738593 0.0350237 -0.00178854 -0.027358 -0.0902957 -0.0780881 -0.0349805 0.0798989 -0.00639695 0.0275794 -0.0368622 0.0826014 0.024755 -0.00130858 0.0260981 -0.0144569 -0.0436725 -0.00708983 0.108841 0.00352256 0.0304392 0.0867779 -0.0293848 0.0279241 -0.0101007 0.0719672 -0.0521266 0.0244064 0.137363 -0.0124185 -0.0976932 0.0412939 0.00254062 0.0329073
rd -0.101015 -0.0648939 -0.00984412 0.0659505 0.0506582 0.00221095 0.0259847 0.0162176 -0.106222 -0.0782771 0.00261913 0.0103198 -0.0107893 -0.0712753 0.00841556 0.0174628 0.0044882 0.0689477 -0.0505568 0.116207 0.0518682 -0.0551637 -0.0346355 -0.044023 -0.083676 -0.0181271 0.0651776 -0.0311291 -0.00744709 0.0928867 -0.0306488 -0.030619 0.0363089 0.0441587 0.00757166 -0.0756705 0.00386186 0.0818017 0.0883229 -0.0344943 0.106917 0.0302093 0.0187089 -0.0203388 0.109401 -0.056246 0.0938776 -0.0395547 0.00698922 0.069014 0.00397256 -0.118098 0.0430596 -0.107543 -0.0215275 -0.107752 0.038719 0.0938317 -0.0905301 0.0717376 -0.0280155 -0.0409012 -0.0497599 0.0470288 -0.0258477 0.0614179 0.0679445 0.0333813 -0.102195 -0.0249826 0.0237866 0.0133277 0.0361493 -0.0939308 -0.00540384 0.0371236 0.106423 -0.0348493 -0.0489119 -0.0159019 -0.0758917 -0.0372078 -0.00599261 0.0433514 -0.0404957 0.0557682 0.0810887 -0.00928201 0.0453125 0.00704446 -0.00383361 0.0156705 -0.0340265 0.0180958 0.0267295 0.0743485 -0.0369194 0.0369022 0.0256201 -0.0573632 0.124665 -0.0646658 0.00118596 -0.00276894 0.120816 0.029877 0.0485952 -0.0682984 -0.0203151 -0.038915 -0.070266 0.0999463 0.00698193 -0.0130454 0.0661492 -0.0737567 0.000131167 0.0475897 -0.0835701 -0.0544899 0.0568041 0.0335307 -0.0235171 0.0807164 -0.0226537 -0.0411322 -0.0127274 0.0901958 -0.10698 0.00867075 -0.0359079 -0.0164216 -0.0316363 0.136014 0.0424205 -0.0437437 -0.0677298 -0.0525834 0.119311 0.0659022 -0.0867566 0.0343489 0.0716296 0.0906978 -0.0277134 0.101927 0.103216 0.0817819 -0.028461 -0.0220601 0.0292 0.0294111 -0.042137 0.0723968 -0.0942918 0.0194903 -0.0953125 -0.0997493 -0.0155953 -0.0608657 0.0112152 -0.0406715 -0.011924 0.0121865 0.0250655 -0.0445313 -0.0516255 -0.0392103 -0.00486184 -0.0125107 -0.00675121 0.0308723 -0.0490692 0.0277311 -0.0253554 0.157762 -0.0497171 -0.0515014 -0.0223068 -0.0452581 0.0232465 0.0154017 -0.0768699 -0.0467397 -0.0558838 0.0609878 0.0091003 -0.0892335 0.0758978 -0.12461 -0.00422367 0.0395702 0.00397393 0.0317214 0.0343392 -0.0651335 0.000997828 0.0565603 -0.0747179 -0.0248314 0.0635411 0.0219431 -0.0422808 0.0116293 -0.024885 -0.0745957 0.0687955 -0.0699665 0.11277 0.0230632 0.164507 -0.0367224 -0.00930017 -0.0822174 -0.0419114 -0.0742412 0.0505755 -0.0353206 0.0789394 0.0613475 -0.0869094 0.110572 -0.039267 0.0658612 -0.0357428 -8.99271e-05 -0.0735258 0.0261305 -0.00180782 0.0338016 0.00321135 -0.00779337 -0.00952157 -0.0289233 -0.0524558 0.0713657 0.0659942 -0.0213485 0.0463849 0.0249679 -0.0467891 0.0279005 0.0210216 -0.0605258 0.0650537 -0.0443546 0.0296377 0.0209311 -0.0662572 -0.0393458 0.0281549 0.0871359 0.002153 0.013168 0.0493372 0.00357538 0.0639537 -0.097885 0.049692 0.0849054 0.0120203 -0.00834773 0.101131 0.0594654 -0.0796324 -0.0454348 0.0407388 0.0455056 0.00616424 0.0516766 -0.0109784 0.0384054 -0.0683785 0.00351855 -0.0282533 -0.066415 0.0674591 0.114381 0.0195672 -0.0351517 -0.051375 0.0751027 0.0289789 -0.0172922 0.0292325 0.054259 -0.00715955 0.0590975 -0.0333341 0.0561557 -0.0697741 -0.0591264 0.11606 -0.00629372 0.0211205 0.00440456 0.0286111 -0.00816762 0.0930451 -0.0174778
hij 0.0139617 -0.0506263 0.0165937 0.0594348 -0.00674464 0.0392517 0.0530072 0.0115696 -0.0183465 0.114204 0.066344 -0.00788334 0.0434086 -0.0480131 -0.0222579 -0.117685 -0.00885768 -0.0394393 -0.0357896 0.0918284 -0.056426 0.0742307 -0.096471 -0.153804 -0.0455325 0.0348797 0.054106 -0.0768086 -0.0489574 0.0358751 -0.0151524 0.0404793 -0.103848 0.0332644 0.0334185 -0.05476 0.00852763 -0.119233 0.00766733 -0.00409537 0.00473282 0.0187101 -0.0253925 -0.0317219 -0.0185703 -0.0674061 -0.0157689 0.067973 0.0519099 -0.00683653 -0.00647793 -0.0441936 -0.0434567 0.0398839 -0.0823516 -0.0417517 0.0328467 0.0493773 0.0271793 0.0431419 -0.0416683 -0.0311939 0.0433683 -0.0420229 0.00977951 -0.0416016 -0.0263767 0.0504653 -0.0172616 -0.021659 -0.0424567 -0.0634774 -0.0237943 -0.0366777 -0.0164395 -0.00381994 0.0895124 0.0328074 -0.0637187 -0.0514058 0.081172 0.0269072 -0.0279286 -0.0193263 -0.0223751 0.0203799 -0.123945 0.0237913 -0.0655323 -0.0231664 0.0288748 -0.100067 0.147529 -0.071307 -0.0236663 0.0784297 0.0296046 0.073074 -0.111636 -0.063187 -0.00991036 -0.0110095 0.0975292 0.022555 -0.0539895 0.00672146 -0.0538405 -0.0399531 -0.0329608 0.00556463 -0.0431707 -0.0280839 -0.00764737 0.0353087 -0.0680553 -0.0908331 0.067885 0.0510787 0.0241301 -0.00666445 0.00296783 0.0795526 -0.00709428 0.0946035 -0.000640835 0.0189008 0.0556464 0.0751569 0.0261794 0.0523875 -0.0167413 0.0730674 -0.0836195 -0.126432 -0.12972 -0.015962 -0.0168056 0.00328327 -0.0770013 0.027756 0.0107072 0.0157204 0.0412889 0.0191644 0.0493382 0.10533 0.0211993 -0.107066 -0.0265372 0.0396369 0.0172181 -0.0690505 0.0218062 0.059606 -0.143455 0.0837096 -0.0568272 -0.074852 0.0142934 0.0418194 -0.130298 0.110672 -0.0832135 0.0985105 0.0516578 -0.030753 -0.0134833 -0.0257698 0.0803631 -0.0560193 0.0494461 0.0866602 -0.090487 0.00290915 -0.0335665 0.10974 -0.0596631 0.0899528 -0.0897495 -0.0286162 0.00750903 -0.0124106 0.00160066 0.0467807 -0.0479156 0.0776681 0.0122792 0.0243905 -0.0396149 -0.0278105 0.020519 0.00567614 0.0311628 0.0801511 -0.0666437 -0.0424306 -0.0369563 0.0399553 -0.150881 -0.0480818 0.0769853 -0.0387512 -0.0792208 0.0321403 0.0317624 -0.0532954 0.00941628 0.0250883 0.0635285 0.00982713 0.123046 -0.0201048 -0.0442968 -0.015352 0.0236131 0.0430868 -0.0519084 -0.092412 0.00538538 0.0506316 -0.00690141 0.0226114 -0.0295893 0.0108401 -0.115134 0.0346883 -0.0647992 -0.0542471 -0.00504254 0.00369462 0.0554839 0.0923754 -0.0742142 -0.0353474 0.0381952 0.0216164 -0.00272663 0.00857752 0.00866385 -0.0356603 -0.00721241 -0.0400263 0.105002 0.137754 -0.0906688 -0.00168287 0.0354305 -0.0958531 -0.0517585 0.00685365 0.0413986 -0.110139 -0.0187118 -0.0217701 -0.0720072 -0.0368701 -0.0585694 0.0126252 0.0654685 -0.0137159 -0.00690931 0.0963377 0.0954557 -0.0694787 -0.050929 0.00817105 -0.00623283 0.0419948 0.107814 -0.0812405 -0.107495 -0.00638453 -0.0916401 0.096563 -0.0741037 -0.12389 0.016961 0.0368487 0.0163759 0.00908479 0.0792303 0.00463302 0.012337 0.0199271 -0.0329326 0.0134935 0.0704924 0.0355107 -0.0029081 -0.0436461 0.021015 -0.0845621 -0.00389138 -0.00230046 0.0264409 0.0593525 -0.0258961 0.0473662 -0.0113268 0.0186913
dat -0.0743481 0.0213341 0.0216184 0.103698 -0.0333702 0.0779145 -0.0943312 -0.105932 -0.0873035 0.078018 0.0214646 -0.0606236 -0.0312958 -0.0485753 -0.0364539 -0.0745993 0.0236107 0.00543741 0.0891876 0.132062 0.0309679 0.0496629 -0.0489538 -0.083577 -0.0873441 0.0649826 0.0882301 0.0657067 -0.0350587 0.003726 -0.122383 0.0172794 -0.0532673 0.0154619 0.0411852 -0.00468297 -0.0947274 -0.0361942 -0.00596284 -0.0545349 0.00867726 -0.0139706 0.0190273 0.0145275 0.00404495 0.101403 -0.0262936 0.0286347 0.0374549 0.0400829 -0.0289247 -0.115538 0.00937934 -0.0431232 -0.032416 0.0326134 -0.0508085 0.0361442 0.0420323 0.0824287 -0.0628745 -0.026671 0.065203 0.032933 -0.035485 -0.112838 -0.0396091 0.0440426 0.0189429 -0.0590206 -0.00914568 -0.0534438 0.0705668 -0.166224 -0.0601643 0.0555064 0.12382 0.0546814 0.0261338 0.0209541 0.0471511 -0.07853 0.0155983 0.0746448 -0.0289004 -0.000931059 -0.0744068 0.0832235 0.0217007 -0.084986 0.0146079 0.0253469 0.133693 -0.0772157 -0.00997518 0.030461 0.0917354 0.0405666 0.0349822 0.0228734 -0.0673533 -0.0251387 0.000120485 0.0188577 -0.0548034 -0.0866099 -0.00304982 -0.019921 -0.0374337 0.0550724 0.00607808 -0.0445785 -0.0237256 0.00663928 0.0071918 -0.0310368 0.102321 0.0954623 -0.00845941 0.0401623 0.000183069 0.106948 0.00763364 0.123649 0.025784 -0.029297 0.10686 -0.00354523 -0.0105243 -0.0104443 -0.0641343 -0.0187672 -0.0664189 -0.0589039 0.0378906 -0.00392906 0.0400003 0.030443 0.0130076 0.0391605 0.057221 0.000149494 0.0353087 0.000366727 -0.000206093 0.0249137 0.0154013 -0.0656987 0.0344514 0.0102961 0.0435829 -0.0809191 -0.016826 -0.027931 -0.0366304 -0.0433374 -0.0194743 0.0767541 0.130099 0.0647662 -0.0687383 0.107636 -0.171383 0.0103473 0.0659573 0.101625 0.00690276 -0.0442604 0.0807596 0.0603429 -0.0429496 -0.0149585 -0.0992168 -0.0555839 -0.0930529 0.0193291 -0.0821822 0.0296956 -0.0879256 -0.0513928 0.0155124 -0.0301254 0.0537149 0.085652 -0.0885974 -0.024621 0.0154675 -0.0346285 0.0657612 -0.104094 -0.019416 -0.110616 0.0440601 -0.0109805 -0.0235527 -0.0207436 0.0333672 0.0497312 -0.0792246 0.0222219 0.0494051 0.0235781 0.0190726 0.102544 0.0187445 -0.0312944 -0.0305538 -0.0179431 0.0887006 -0.0350891 0.10682 -0.00843481 0.0153818 0.0377984 0.0312024 -0.0126889 0.0176409 -0.0784226 -0.0311854 0.0463614 -0.0748783 -0.0911678 -0.0217367 0.0198759 -0.0341447 -0.0590727 -0.0709233 0.0445539 0.0380375 -0.00173087 0.024248 0.0026234 -0.0311391 0.0145978 -0.00894985 0.0328437 0.0609284 -0.00149183 0.0454178 -0.0506973 -0.000372287 -0.0421863 0.0362173 0.00388995 -0.019773 0.0898755 0.0403145 0.0869292 -0.0975178 -0.00753043 0.0404902 0.0420488 -0.0296992 -0.0435498 -0.027787 -0.0321266 -0.0278834 -0.0454092 0.000904781 -0.0340418 0.00923631 -0.0185146 -0.0466506 -0.10096 -0.0527625 -0.00110107 -0.0176314 0.0955281 -0.0115103 -0.0313688 -0.115057 -0.0100494 0.060091 0.0876626 -0.0950257 -0.06231 0.0981808 0.00111414 0.0953178 -0.0304916 0.0217491 -0.00758984 0.0312036 -0.0464501 0.0449237 -0.0929417 0.047303 0.18027 -0.0202444 0.0262319 -0.00574339 0.0398987 0.0641276 0.0174489 0.0300698 -0.0518036 -0.0277679 0.0603273 0.0734529 -0.0457061
werd -0.0471346 0.0141367 -0.0138283 0.0242391 -0.0113988 0.051485 -0.0378948 -0.14041 -0.0705592 0.175596 0.0629146 0.0449413 -0.014562 0.013083 -0.00895675 0.0123006 0.011044 -0.0702798 -0.0275968 0.117033 -0.0627238 -0.00437838 -0.024547 -0.0705436 -0.0854939 -0.0168545 -0.0240122 -0.00895626 0.0671111 -0.0111113 -0.0528728 0.0552409 -0.0193942 0.0357686 0.103511 -0.0139311 -0.0229748 0.00264286 0.115994 -0.0607962 -0.0221609 -0.0266588 -0.0619712 0.0505533 -0.03313 -0.05955 0.0265949 0.0952345 -0.0237792 0.0569537 0.0357525 -0.0441109 -0.0461903 -0.00199365 0.0512471 -0.015858 0.0768727 0.0249388 -0.0115664 0.0897393 0.0757401 -0.0477613 -0.0396306 -0.00830586 0.0623228 -0.0436155 -0.0570806 -0.00840669 -0.108105 -0.00629511 -0.00883115 0.0653803 -0.0205133 -0.0726369 0.00779744 0.0322295 -0.0069261 0.0836578 0.0295918 -0.188854 -0.0545824 -0.051053 0.0189909 -0.0206579 0.0153862 -0.0507202 -0.0766459 -0.0121375 -0.0985127 -0.0287691 -0.0896271 -0.0909578 0.0199331 -0.105606 0.0240292 0.0625717 0.00114281 0.0118783 0.00830644 -0.015797 -0.131041 0.0192938 -0.0210517 -0.0255275 0.0276531 -0.0301557 -0.0219725 0.103805 0.0144391 0.0126589 0.0125318 0.028756 -0.0568465 -0.000803639 0.0451598 0.0362658 0.0373924 0.122698 0.0352608 0.0307624 0.00910653 0.11034 -0.0616954 0.0394174 0.0385549 -0.0182195 0.0540399 0.105066 0.0900929 0.0305624 -0.0748404 0.027694 0.0254694 0.0178977 0.0108376 0.0383304 0.0106806 0.00374616 -0.0435646 0.0647414 0.00610715 -0.0591057 0.0274985 -0.0201168 -0.00333948 0.0646076 0.0115937 -0.0392311 0.013188 0.0815342 0.0676349 -0.0195644 -0.0228345 0.0474562 -0.0451823 0.0623776 -0.0591806 -0.00316243 0.136694 0.0185246 -0.0183604 0.0853158 -0.0886533 0.00788405 0.0515469 -0.000465496 0.0259524 0.0378434 0.100659 0.0253896 -0.0231621 0.0579622 0.0278715 -0.0206027 -0.0355974 -0.0891406 -0.0431508 -0.0400109 -0.0377329 -0.0137042 -0.0924552 0.0222593 -0.0908138 0.0583341 0.00912986 0.0397688 0.0523916 -0.0445061 0.00215094 0.0397628 -0.0859947 -0.0751672 0.0109556 0.0729524 -0.0789809 0.0419111 -0.0287786 0.0274674 -0.100278 -0.0298398 -0.00421436 -0.084339 -0.0672372 0.0337141 -0.00290162 0.0155145 -0.0121002 0.0705756 0.182401 0.0746857 0.168324 -0.0935897 -0.090455 0.0444776 -0.0414297 0.0229286 -0.00956307 -0.0409295 -0.0567093 0.0208443 0.0581956 -0.052392 -0.0417241 -0.0251847 0.000765814 -0.0599573 -0.0486807 0.0104781 -0.00506967 0.00751175 0.0445116 -0.00992555 -0.0424746 0.00935528 -0.067934 -0.0655854 0.0440748 -0.047521 -0.0609271 0.0312403 -0.0424871 0.0267363 0.0183206 0.0791761 0.0321453 -0.0663678 0.0166721 -0.116639 0.0700644 -0.0347089 0.096486 0.0535011 0.105808 -0.0547009 -0.0414388 0.0690248 -0.0907431 -0.0533444 -0.0956335 0.0479594 -0.0119595 -0.0111311 0.0454824 -0.00275489 -0.125723 0.0929968 0.0222333 0.0266052 0.0027246 -0.0429836 -0.14908 0.0127421 -0.0563431 -0.0345285 -0.094957 -0.0315038 0.107677 0.0363556 0.107703 -0.120811 0.0184376 -0.0138347 -0.0267037 0.059121 0.0178347 -0.00203742 -0.0383105 0.0608725 0.0126574 0.027835 0.00113607 -0.0753009 -0.00699019 0.0433817 0.00148507 -0.00879839 -0.0873197 0.0309168 0.0306953 -0.00380955
die -0.10397 0.0776641 -0.0971661 0.103978 -0.0333409 0.0613184 0.0272127 -0.0386735 0.0503111 0.100842 0.0852914 0.000501983 0.000584871 0.0177117 -0.00022791 -0.12518 -0.0140505 -0.0530733 -0.0184565 0.0444971 -0.0559023 0.0196994 -0.0818144 -0.0174494 -0.0120896 0.00748216 0.0731992 -0.00683913 -0.00412853 -0.0180779 -0.0269036 -0.0026591 -0.0517787 0.0965762 0.0716792 -0.0185409 -0.0330615 -0.0535745 -0.0267703 0.0081387 0.100202 0.0209028 0.0202601 0.0631362 -0.0205125 0.0286317 0.0334188 -0.0143295 0.0073653 -0.051437 0.0271802 -0.0273964 0.032496 0.0115449 -0.0175832 0.000775023 -0.120188 0.00164909 -0.0859643 0.0286871 -0.000824916 -0.0311996 0.111953 0.0124036 0.0318802 -0.114963 -0.0609395 -0.0434333 -0.0729995 0.0331146 -0.0485521 0.0199597 -0.0174127 -0.108524 -0.0269369 0.0307041 0.125381 0.0577204 -0.0110208 -0.0872481 0.0199539 0.103532 -0.0591349 0.0271729 -0.00673764 0.0438732 -0.0843315 0.018213 -0.0540135 -0.029293 0.0469922 -0.00839013 0.0893591 -0.0760856 0.121861 -0.050845 0.0856881 0.0256683 -0.0694956 0.0166593 -0.0334675 -0.0461434 0.0935534 -0.0491864 -0.0472429 0.0044022 -0.0618141 -0.0631805 -0.0127494 0.00378888 -0.00781432 -0.0993774 -0.0731333 -0.000461153 0.101226 0.0542971 0.0605105 0.0720374 -0.0401682 0.00847417 0.125606 0.0602983 -0.0433168 0.159905 -0.0274667 0.0253815 0.0580771 0.0885177 -0.0106276 0.0958663 -0.015154 0.0337504 -0.0868226 -0.0788715 -0.0443205 -0.0264 -0.0476668 0.00467022 0.0610175 0.0244298 0.048867 -0.00799905 0.108614 0.00312625 -0.00692889 0.116427 -0.0345078 -0.0189679 -0.0265603 -0.0439846 -0.010026 -0.0448442 -0.0445755 -0.0502782 -0.0639032 -0.0791725 0.0135016 -0.0350158 0.0105636 -0.0687039 -0.0790154 -0.0007627 -0.111819 0.0876051 0.0746752 0.00317329 0.00827497 -0.0712298 0.107436 0.0919687 -0.0451861 -0.00309925 -0.126052 -0.0607504 -0.0728683 0.0457394 0.00857333 0.0616567 0.0292066 0.023941 0.0505602 -0.0538726 -0.0284918 0.0877714 0.00314059 0.0385665 0.0339676 0.0211105 0.0535665 -0.116692 0.0206323 -0.16222 0.072193 0.00523196 -0.00734737 -0.0434883 0.0284243 -0.0049549 -0.0506536 -0.0473624 0.0693114 -0.0193016 -0.0623649 0.060091 0.0376425 -0.0773813 0.0211693 -0.0239436 0.0233018 0.0847917 0.0722149 -0.00586101 -0.00869349 0.00427489 -0.0131684 -0.0856173 0.0352589 -0.191955 -0.0349337 -0.0247948 -0.113629 0.000820322 -0.0650704 0.0416987 -0.0736661 0.0339023 -0.0408359 0.00859262 0.0177887 0.00923238 -0.00656779 0.102727 -0.0447241 -0.0465769 0.0399818 0.0740447 0.102918 -0.0297699 0.0367548 -0.0473349 -0.000184104 -0.0385013 0.131591 0.0129231 -0.0676583 0.108241 0.0370282 0.0486694 0.0623894 0.0171371 -0.0479883 -0.0266605 -0.041918 -0.00876459 -0.0317635 -0.0185006 -0.0525427 -0.0796514 -0.00213332 -0.0999252 0.0103431 0.0271298 -0.0323966 -0.028024 -0.0688854 -0.0286399 0.00216512 0.036366 0.00484319 -0.0688164 -0.0737198 -0.0179776 0.00506134 0.0649526 -0.0808096 -0.0128525 0.0581293 0.0707977 0.0535813 -0.0154739 0.0548159 -0.0496519 -0.00836172 -0.0091254 0.0279944 -0.0126368 -0.0319317 0.088141 -0.00889471 0.0685064 0.0598925 -0.0551774 0.0576335 0.037423 -0.0118164 0.0132094 0.00420378 0.0385042 0.0200052 -0.0581158
als 0.0158019 0.0210829 -0.0706854 -0.000241754 0.0489771 0.0897475 0.0223285 -0.0269419 0.0449728 0.0641263 0.0574905 -0.0361529 0.0208065 -0.0608807 0.053096 -0.0529807 0.0239867 0.00482334 0.009554 0.0638229 -0.0382567 0.0253599 -0.0361662 -0.136619 -0.0104438 -0.0675778 0.0701509 -0.121466 -0.0340274 -0.0412115 -0.0158092 0.00822446 -0.094272 0.0801434 0.0177828 0.020718 0.0205496 -0.0432883 0.0555523 -0.0508488 -0.0171896 0.108569 -0.0564214 0.0732613 0.0174837 -0.00788628 0.0281648 0.0724833 -0.0328669 -0.0275094 0.0898918 0.00261439 8.00852e-05 -0.0661322 -0.046125 0.00540607 0.023903 -0.0113482 -0.03319 0.0518086 0.0190237 0.00529435 -0.00292689 -0.0734534 -0.0352407 0.0150422 -0.0510003 -0.0331515 -0.0322477 -0.0785266 -0.124918 0.0409607 -0.0108688 -0.0456286 -0.137003 0.00426254 0.0486552 0.15105 -0.00345702 -0.0623198 0.132194 0.0475079 0.00691439 -0.0112172 -0.0428487 -0.063684 -0.0838015 -0.0229235 -0.1114 0.0302087 0.0190949 -0.0585003 0.14223 0.0117214 0.0398802 0.0209832 0.0193708 0.0569159 -0.0897096 -0.0155875 0.00816475 -0.14983 0.0613425 -0.0289001 -0.0272234 -0.0217507 0.0267599 0.0292406 0.0614798 -0.0455926 -0.0138612 -0.0172559 -0.0842652 -0.00409063 0.0567295 0.0201635 0.0301461 0.0172892 0.0272888 -0.0175177 0.0846943 0.0731106 -0.050593 0.147233 -0.0911061 -0.034036 0.0762475 0.0544872 -0.00170657 -0.00940813 -0.024572 0.0467228 -0.0352334 0.038584 -0.0909717 0.0440446 -0.035628 -0.0528203 0.129818 0.0333739 -0.0408986 -0.00175614 0.072331 0.00653347 0.0365939 0.095536 -0.0278564 0.00256615 0.041486 -0.073324 -0.0699971 -0.105497 -0.0176986 -0.0671995 -0.0278304 0.0365635 -0.0653047 -0.0317225 0.112919 0.0733368 -0.0708494 0.0413549 -0.0790355 0.0726624 0.0748158 -0.045946 0.0277071 -0.145263 0.0859725 0.00439059 -0.0701263 -0.0751999 -0.067569 -0.0542266 -0.0631102 -0.0239501 -0.0313813 0.0821143 -0.0535533 0.0309036 -0.000783579 -0.0703156 0.00534994 0.0785712 0.0179179 0.0403819 -0.0337961 -0.0448931 0.0762641 -0.0334919 -0.0725784 -0.0798766 -0.0191929 0.0808549 0.017387 0.00121418 -0.0254929 0.0146282 -0.0866894 -0.00429793 -0.0292351 0.04034 -0.0714285 0.041431 0.103497 -0.0318351 -0.0359242 0.0283342 0.111368 0.00858503 0.174906 0.0436589 -0.0470344 0.0560413 0.0537004 -0.0734464 -0.018946 -0.0643971 -0.0133379 0.0100023 -0.0864746 0.0288716 -0.101957 0.107007 -0.0219335 0.01209 -0.00546542 -0.0204509 -0.0280567 0.00750096 0.0557692 0.0859412 -0.0401898 -0.0864086 -0.0246749 0.055845 0.0686229 -0.00821436 0.0342335 0.0238528 0.0248961 0.0444369 -0.0745971 0.0560585 0.0646173 0.0381412 -0.00167594 0.0236635 0.00584251 0.00682042 0.00149189 -0.033942 -0.107761 0.0533434 0.0258074 0.00723165 0.0125037 -0.0400023 -0.0451013 -0.0555137 -0.0513735 0.0398347 -0.00646366 -0.0244567 -0.131581 -0.0288936 -0.0855647 0.0470697 0.00440082 -0.0814376 -0.0699404 0.0239169 -0.00953687 0.0969256 -0.0366728 -0.0813246 0.0937284 -0.00744624 0.0227618 -0.0181539 0.0653572 0.0781926 0.0249778 0.0894578 0.0331683 -0.0402255 -0.0273893 0.0881696 0.0168363 -0.0501731 0.00305004 0.0857362 0.0419411 0.0243142 -0.0376579 -0.0424485 0.0347182 0.00811797 -0.00603837 0.0595378
aan -0.0510312 -0.0888511 -0.0418123 0.0926235 -0.0125122 0.0367831 0.0730995 0.0452159 0.091034 0.0395797 0.0404011 -0.0422805 -0.0863692 0.00641886 0.00705931 -0.0456129 -0.0465815 0.0376793 -0.0555526 0.0538968 0.0139626 -0.0336943 -0.0310757 -0.201025 0.0584065 -0.0382068 0.026204 0.00356747 0.00679116 -0.00568456 -0.0737934 0.0923118 -0.0787072 0.0744819 -0.0239814 -0.0884206 -0.0190897 -0.0354774 0.0628452 0.0218965 0.132097 0.0454142 -0.0288964 -0.0402953 0.0496144 0.0893634 0.00673584 0.013702 0.0148318 -0.122874 0.0897288 -0.0557136 -0.0493403 -0.023325 -0.0362587 0.0129738 0.021798 -0.052747 -0.0616745 0.00946603 -0.0477521 -0.0186531 0.0206607 0.0438076 0.0351305 -0.0936068 -0.137924 0.0780833 -0.0934887 0.0487468 -0.095813 0.0140765 0.0822284 -0.0192814 -0.0243236 -0.00340107 0.118473 0.0854271 -0.0152103 -0.0452513 0.0231054 -0.0120339 0.0359048 -2.34206e-06 0.0350198 0.0717987 -0.0332451 0.0201823 0.000226478 -0.0574965 0.0829422 0.013077 0.108281 -0.120128 0.0808094 0.0138211 0.0445286 -0.0187274 -0.0154084 -0.0420743 -0.0518042 0.0486639 0.0278651 0.0489042 -0.0436462 -0.0287426 -0.0335475 0.0107989 -0.0123976 0.0689177 0.0277508 0.00355815 -0.0134529 -0.0453973 -0.0129677 -0.0485094 0.120839 -0.0292034 -0.0158497 0.0583129 0.0841373 0.0317187 -0.0149355 0.110169 0.0452999 -0.0610263 0.0402058 0.0196514 0.00326929 0.0046553 0.00983332 0.0745709 -0.0977521 -0.0355885 -0.0381242 0.0643756 0.0906153 0.0549714 -0.0699895 0.00496454 -0.0148972 0.0412959 0.0228444 0.0151566 -0.0337853 0.0604051 -0.0351645 0.0503503 -0.00356033 0.0594978 -0.0118339 -0.0751176 -0.0636512 0.0157975 -0.00939671 -0.0646002 0.0260072 -0.00697776 0.0257754 0.0363825 -0.0356248 0.0895444 -0.0854451 0.0419136 0.134537 0.0259278 -0.0874537 -0.0553856 0.114575 -0.085372 -0.149759 -0.0108573 -0.176493 0.0655321 -0.056922 0.0804122 0.0912082 0.106562 -0.133997 -0.0126854 -0.0810411 -0.0341573 -0.0685492 0.0373826 -0.010913 0.0570823 -0.0185046 -0.00510125 0.111729 0.0154228 -0.0556376 0.00310847 0.00053703 0.010373 0.0503305 -0.0152621 -0.0020212 0.0201999 -0.0237677 -0.040179 -0.0396683 -0.0296639 0.052362 0.027771 -0.0391392 -0.0408047 -0.0775665 -0.0932009 -0.0481312 0.0310753 0.0777632 -0.0461714 0.0268869 0.0206117 -0.0400537 0.0751209 -0.0690166 -0.0100292 0.0419774 0.00235369 0.0120517 0.0223889 0.0493806 0.051943 -0.0428916 0.0760313 -0.0243899 -0.0937121 0.0606556 -0.0265136 0.0444404 0.099088 0.00600281 -0.0754942 -0.0453884 0.0407372 0.0107046 0.00857895 -0.0560841 0.0761473 -0.0343686 -0.00850825 -0.00169395 0.0139674 0.0446693 -0.00918835 0.105914 -0.00921893 -0.0138314 0.0160618 0.0653288 0.0322103 0.0373349 -0.04346 -0.0580745 -0.0608071 -0.0489542 -0.00726222 -0.0173307 -0.0447411 -0.0392198 0.00105811 -0.0381034 -0.0133675 0.0280304 -0.0651443 0.0298372 0.0939825 -0.00564325 0.0250403 -0.0149672 -0.0881862 0.0277766 0.00533023 -0.0355482 0.011551 0.0656103 0.120022 0.100593 -0.0417792 0.0234409 -0.0287512 0.021903 0.0345346 0.0394573 0.0337576 0.0685823 0.0673996 -0.0558399 0.0771375 -0.0173336 -0.0960062 0.0308144 0.0844108 0.0450169 0.0198252 -0.102215 -0.0127468 -0.119074 -0.06837
was -0.0211446 -0.0219485 -0.0138608 0.0251825 0.0376288 0.0128166 -0.0313238 -0.0969432 -0.0402269 0.14683 0.117567 -0.0254264 -0.0189432 0.0139 -0.024945 -0.0211017 -0.0620246 -0.025942 -0.0981199 0.0836024 -0.00977836 0.0895971 -0.0296193 -0.0948738 -0.0909663 -0.0146553 -0.00740697 -0.0233981 0.0136458 0.030422 -0.0423584 0.0393102 -0.0931697 0.0812956 -0.0178138 -0.0148645 -0.0217378 -0.0939598 0.0582853 -0.0583737 -0.0283603 0.00347561 -0.0778143 -0.0403955 -0.10495 -0.0174783 0.0156812 0.0292405 -0.000720671 0.048138 0.0752711 0.00188363 0.0409414 0.0458007 -0.0338046 0.0389344 0.0309778 0.0297456 0.0180072 0.0488691 0.039479 -0.0537485 0.0103165 -0.026752 0.0593528 -0.0422792 -0.124879 0.0508219 -0.0965114 -0.0764707 -0.0388044 -0.0277236 0.0765508 -0.0404806 -0.012087 0.0578394 0.0497096 0.10174 -0.0495904 -0.0478245 0.0178086 0.0881096 -0.0181465 0.0496406 0.00730362 -0.0616601 -0.105307 -0.0171114 -0.0768648 -0.0574533 0.0222411 -0.0476834 0.0802213 -0.0608462 -0.0347651 0.0104501 0.0450138 -0.0320287 -0.0472591 -0.0540952 -0.0410329 0.019956 0.0118375 -0.0116889 -0.0100164 -0.00479184 -0.0322979 0.00347454 -0.0926495 0.000272628 0.0831222 0.0314077 -0.0558097 -0.0305108 0.100519 -0.00347176 0.0162189 0.10993 0.00265953 0.0707235 0.0703214 0.0888015 0.0382719 0.104839 0.0479857 -0.0144857 0.0465463 0.0714352 0.00290568 0.0442009 -0.0717786 -0.0426959 0.0110005 -0.11166 -0.0471039 -0.0737841 0.00792582 0.0524014 -0.0178571 0.064807 -0.0524374 -0.0467827 -0.0029487 -0.0173784 0.0971817 0.13312 -0.0914687 -0.0296741 0.0159492 0.0081017 0.00567115 -0.0433015 -0.00319763 0.0465077 -0.0766406 0.00198271 -0.0139435 0.0234346 0.136217 0.0310267 -0.0215889 0.0654309 -0.02361 0.0887672 0.144802 -0.0385456 0.0828084 0.0202233 0.102208 0.00396069 -0.00100855 -0.0450589 -0.0350853 0.0339535 -0.0157008 -0.0344297 0.0045579 0.0408669 -0.0859721 -0.0211696 0.0262215 0.038455 -0.000645375 0.051924 -0.0541616 0.123592 -0.0584268 0.0150259 0.00994001 -0.0243334 0.0655567 -0.111592 -0.0780002 0.0280033 0.00472909 -0.00343924 -0.0432911 0.0254114 -0.0680672 -0.040098 -0.0651626 -0.107208 -0.0957837 0.0370596 0.00184661 0.00183633 0.0501492 -0.0358565 0.112105 -0.0113716 0.18788 -0.109755 -0.00588961 -0.0102617 -0.0637711 -0.0797321 -0.0779137 -0.0847988 -0.137928 0.0731925 0.0132807 0.00919303 -0.11222 0.0444921 -0.00549103 0.0266874 0.0166776 0.0529396 0.00468077 0.0260148 0.00319882 0.0790448 0.00145068 -0.0483719 0.0106946 -0.0541448 0.0232227 0.0389222 0.00074949 0.00480144 -0.0273925 0.0493059 0.104669 -0.00843588 -0.0381453 -0.0325744 0.0829004 -0.0266955 -0.0435943 -0.0905318 -0.0715752 -0.0249959 -0.0575887 0.039274 -0.0716979 -0.00922783 -0.0123015 0.0262866 -0.0467718 0.0538402 -0.0627995 -0.00977156 -0.0298795 -0.0147956 -0.153726 0.0949041 0.0147673 0.0753249 0.0557227 -0.0503702 -0.144254 -0.00609189 -0.022956 0.0822715 -0.0271051 -0.123786 0.0311236 0.0730433 0.0788636 -0.0411128 0.00662159 -0.0615686 -0.0403096 0.0246307 -0.00203602 0.0113842 -0.0339612 0.067991 0.0683323 -0.0339818 0.0266414 -0.0569259 0.00057438 0.0415663 -0.0324038 -0.00986294 -0.0429241 0.0304964 0.0534116 0.0231554
ook -0.024605 -0.00423989 -0.0623185 0.0316532 0.00709251 0.0306092 0.0352786 -0.0481984 0.0526783 0.0690959 -0.0255676 -0.0224716 0.0837658 -0.058173 0.0379736 -0.0905977 0.039318 0.0602977 0.0192245 0.0122148 0.0298074 0.0332148 -0.0518865 -0.113903 -0.0890908 -0.0234699 0.0171785 -0.0664541 -0.0168724 0.0136265 -0.055733 0.0547638 -0.0472916 0.0327281 0.0571518 -0.0509371 -0.0899499 -0.0290808 -0.00254911 -0.0760496 -0.00650359 0.0200503 0.0255509 0.0241892 -0.0210843 0.0177849 -0.0385562 0.0431771 0.0458096 -0.0367908 -0.0508667 -0.000973766 -0.0374657 0.0499879 -0.146787 0.0255505 0.0250237 0.0358138 -0.119395 0.101528 -0.0321493 0.0222952 0.0498485 -0.0683503 0.0294146 -0.0214723 -0.0169922 -0.0510036 0.00566184 -0.0182062 -0.0350426 -0.0322356 0.0031457 -0.111959 -0.0780847 0.0343061 0.0644522 0.0898712 -0.00575184 -0.0599868 0.0532343 0.00915153 -0.0560882 0.0562844 -0.00298824 0.0246987 -0.0602732 0.000614743 -0.0752532 -0.0461777 0.0594702 0.0160906 0.176525 -0.0667338 -0.00413346 0.0241414 0.0556968 0.0428594 -0.0608147 -1.43285e-05 0.00990409 -0.0630784 0.060478 -0.0699411 -0.161172 -0.0358552 -0.0273103 0.0186551 0.0363375 -0.0385299 -0.0155808 -0.00964921 -0.0549357 -0.00977423 -0.0105042 0.000741718 0.0694698 0.0377418 -0.0305286 0.051047 0.165541 0.0434408 -0.0350418 0.116922 0.0621999 -0.0176955 0.139639 -0.0411115 -0.0201663 0.160511 -0.0128347 0.0462332 -0.0423055 0.00321333 -0.0307511 0.0441297 -0.0046016 -0.000578266 0.000939211 0.05764 0.00639419 0.0717182 0.0323173 -0.0235278 0.0557074 0.0972784 -0.0742845 -0.007022 -0.00623698 -0.0116494 -0.0721933 -0.129022 0.019694 0.000794569 -0.0354533 -0.0160445 0.0130214 -0.0437966 0.103024 0.0610345 -0.091626 0.0999039 -0.0791484 0.0502285 0.123545 0.000529578 -0.0648692 -0.0729576 0.0629104 0.0215343 -0.0110342 -0.0352789 -0.0831719 -0.0238551 -0.0381188 -0.00472018 0.0350961 0.0215888 -0.0694739 0.0056468 0.0537415 -0.0503998 0.0305853 0.0876897 -0.0244355 0.0881711 0.00486056 -0.0137775 0.0825185 -0.031412 -0.00220824 -0.121233 -0.0112524 0.0438361 -0.0944165 -0.0537235 0.0284698 0.0560487 -0.124098 -0.00342304 0.00574832 0.0127016 0.0320365 0.020644 0.00761688 -0.0330181 -0.0442288 0.0248148 0.0607384 0.059068 0.171075 -0.0518606 0.0363676 0.0014531 0.0181573 -0.0138508 -0.0709466 -0.0336601 -0.10017 0.0191894 -0.0503007 -0.0500986 -0.039412 0.00108359 -0.0497703 -0.00806988 -0.038969 -0.0569513 -0.0253921 0.0174208 0.0794166 0.0903097 -0.0464506 -0.0257006 -0.0790115 0.11282 0.137861 0.0092452 0.0268869 0.0455869 -0.0424609 -0.000751812 0.0138644 0.0352242 -0.0360466 0.116317 0.0647944 -0.00645953 -0.00332578 0.0204199 0.0865976 0.019193 -0.0964399 -0.0137542 -0.0323499 0.015095 -0.0338887 -0.034203 -0.00264442 -0.0769656 0.0290809 0.0837621 -0.00683478 -0.0507721 -0.0795062 -0.0917881 -0.0979224 0.0842211 0.0207223 -0.0889434 -0.119219 -0.0100268 -0.00713364 0.0390303 -0.0279083 -0.146694 0.046337 0.0665673 -0.0377893 -0.0333642 0.0653558 0.00406318 -0.00461268 -0.0199078 0.0587025 -0.0129009 -0.0139774 0.0697588 -0.0760204 0.06 -0.0306871 0.0120935 0.0507982 -0.00576803 -0.0514719 0.00341794 -0.0491036 0.0791902 0.0646605 0.0585901
of 0.114961 -0.00788612 0.114196 0.0368619 -0.0516658 -0.034512 0.0164972 0.00156212 0.160389 0.0546747 0.0182906 -0.0185407 -0.00704664 -0.00623692 -0.00794085 -0.0456982 -0.0438115 0.149051 -0.0643749 0.0482084 -0.0479544 0.0492253 0.00969461 -0.0236922 0.00886931 -0.0260011 0.0594135 -0.0733781 -0.0283199 -0.000382937 -0.0205444 0.122938 -0.0418718 0.0167082 0.0767935 -0.0174628 -0.0397252 -0.076892 0.0396557 -0.0588637 0.0107604 0.0421607 -0.0560061 -0.0777295 0.0215175 -0.00323595 -0.111443 -0.0549603 0.00520618 -0.0675936 -0.0340792 -0.152976 -0.000197587 0.0568395 -0.0545082 0.0677287 0.0574086 0.00642788 0.0106918 0.0662546 -0.0576702 -0.0395048 -0.00948387 -0.045672 -0.0160781 0.00214673 -0.0119599 -0.129827 0.116352 -0.0292883 -0.125323 0.0232034 -0.00408565 -0.0044141 -0.121498 0.0683664 0.0988568 0.056931 -0.074728 0.090002 0.0404437 0.0469782 -0.0745433 0.0187962 0.0159417 0.0337551 0.00633797 0.0333834 -0.0793781 0.036024 -0.0498804 0.0200149 0.0552876 -0.10462 0.0579095 -0.0154224 0.00237861 -0.0954796 -0.0107541 0.0519953 -0.00777903 0.0768257 -8.12275e-05 -0.0931372 0.0133368 0.0332631 -0.0357907 -0.030782 -0.0247762 -0.0530042 0.0834165 -0.0462381 -0.0120081 -0.0269354 0.034455 -0.00380225 0.00776827 0.00280032 -0.0208128 0.0469576 0.0980509 0.0116831 -0.0962465 0.1382 -0.0639984 -0.0270412 0.0819885 0.0687613 -0.00706554 0.0464452 -0.0685642 0.00179469 -0.0340493 0.0587503 0.0778396 -0.0496409 -0.0383661 -0.0427091 0.0446845 -0.0225643 -0.0470598 -0.00466613 0.00282131 0.00918937 -0.058669 0.0869866 0.00334124 0.00415204 -0.121336 -0.0513156 0.0270963 -0.105785 0.0139254 -0.0128124 -0.00718227 -0.0459117 -0.0579893 -0.046396 0.0319444 0.0325836 -0.00634496 0.0384535 -0.113555 0.0188798 0.0439115 -0.090267 -0.0327585 -0.135028 0.0489847 0.0345163 -0.0757698 -0.0338952 -0.0908839 0.0398933 -0.0253984 0.0125717 -0.0507828 0.0897261 0.0409074 -0.0352201 0.0112903 0.022726 -0.0488407 -0.0104661 -0.00187582 0.0436699 0.0452466 0.00507235 0.0704378 0.018168 0.029726 -0.1002 -0.0350161 0.0362318 -0.0212935 -0.13939 0.0337554 -0.0102519 -0.0955356 0.0287737 0.0683072 -0.0236495 -0.105297 -0.0305881 -0.0629874 -0.0500651 -0.0973144 0.0328605 0.115316 0.0507485 0.0870615 0.0440486 0.0169848 0.0110974 0.0122981 -0.0151633 -0.0641896 -0.0675348 -0.0605025 -0.0344689 -0.145032 -0.0186306 -0.0581846 0.103032 -0.0247813 0.0213047 -0.0474211 -0.015579 0.0122827 0.0777742 -0.0452949 0.00742534 -0.00588691 -0.0310434 -0.0615573 0.0322708 -0.0407559 -0.0516927 -0.0540423 0.046985 0.0615406 0.030369 -0.0364918 -0.0845057 0.059429 0.166306 0.0255138 -0.0315557 -0.0281879 0.0793274 0.0115485 0.0620169 0.0023391 0.0369175 -0.00591923 0.0796252 -0.0148993 -0.0879159 0.057269 -0.00402414 -0.0402031 -0.00140992 0.0105687 -0.00721444 -0.068861 0.0405804 -0.00557513 0.0518972 0.0946742 -0.00426511 -0.0283402 -0.0468805 0.025087 -0.0511665 -0.0931693 -0.0579311 0.000819592 0.0226944 -0.0457699 0.0145805 0.0616397 0.055275 -0.105981 0.00284619 0.0968268 -0.035507 0.0853765 0.089004 -0.109892 0.0180703 0.00971604 0.00593249 -0.0525271 -0.0158668 -0.015491 -0.039483 -0.000278603 -0.0315178 -0.0665392 0.0323067
